#include <iostream>



double weights1[16][32]= {{-5.67768216e-01,  3.13121714e-02, -4.25878584e-01,
        -6.31814659e-01,  3.87999952e-01,  2.56713122e-01,
         1.58979610e-01, -5.29146135e-01, -5.84333539e-02,
        -4.40771401e-01,  8.14827800e-01,  8.13430250e-01,
        -9.34172049e-02,  8.08278263e-01,  1.72862485e-01,
         7.15487659e-01,  1.11310430e-01, -5.75105131e-01,
        -5.58741808e-01, -2.25840092e-01,  4.18009222e-01,
        -8.06936741e-01, -4.89647478e-01,  5.31746686e-01,
        -1.48534060e-01,  5.23554444e-01,  8.14513862e-01,
         7.54189014e-01,  8.50376427e-01, -6.11112773e-01,
         9.71754014e-01, -7.56121635e-01},
       {-3.13126326e-01,  3.01872015e-01, -2.77934432e-01,
        -3.27243447e-01,  3.82975191e-01,  2.00033501e-01,
         2.16437325e-01, -5.35189994e-02, -3.87879461e-01,
        -7.15367272e-02,  8.39426666e-02,  4.59232442e-02,
        -2.65602976e-01, -4.90244776e-02,  1.05613038e-01,
         1.85469225e-01,  1.59407169e-01,  1.04405582e-02,
        -6.56769723e-02, -2.92246252e-01,  3.06279033e-01,
        -2.15588748e-01, -3.32081825e-01,  3.05849284e-01,
        -2.64151931e-01,  1.93043932e-01,  1.75234571e-01,
         4.05580819e-01,  3.50617051e-01, -3.04961383e-01,
        -5.29791303e-02, -3.77345890e-01},
       { 1.56977758e-01,  3.16827923e-01, -1.17298216e-02,
         1.52180344e-01,  4.64598835e-01,  3.80172610e-01,
        -8.61467719e-02, -1.28292158e-01, -1.09488264e-01,
        -1.10058114e-01,  1.27398446e-02, -3.02026030e-02,
         2.75765862e-02,  1.93356052e-01, -1.38950884e-01,
        -1.36361480e-01, -4.00630832e-02, -1.07069641e-01,
        -2.95353085e-01, -2.53659070e-01,  4.74379547e-02,
         5.07311821e-02, -4.83150333e-01,  4.49598998e-01,
         1.51319310e-01,  4.17324156e-01,  3.37373644e-01,
        -1.52677879e-01,  4.13654417e-01,  6.74117729e-02,
         4.31677997e-01,  1.87299892e-01},
       {-3.70441407e-01, -1.70317829e-01,  1.43469751e-01,
         2.08450034e-01,  1.92653045e-01,  4.38967913e-01,
         1.17421567e-01,  9.38692503e-03, -2.28947416e-01,
        -6.73104897e-02,  7.91421607e-02,  3.41271669e-01,
        -3.86606306e-01,  3.96526873e-01,  4.17867929e-01,
        -2.01337203e-01,  1.95830464e-02,  2.98323333e-01,
        -1.11415572e-01,  1.89877212e-01, -4.20917049e-02,
         5.25832474e-02,  7.10217431e-02,  3.78525048e-03,
        -2.65472084e-01, -2.91066561e-02,  3.85210663e-01,
        -3.69752012e-02, -3.92568782e-02, -6.36815429e-02,
         2.24114791e-01, -8.12970623e-02},
       {-4.82572377e-01,  4.83677676e-03, -6.91866055e-02,
        -1.18986107e-01,  4.65734988e-01,  1.22556224e-01,
         3.11231494e-01,  5.50886169e-02, -5.27556419e-01,
        -2.61612028e-01,  3.26875895e-01, -8.55191331e-03,
        -3.29574496e-01,  5.32472491e-01, -9.48403776e-03,
         1.17377862e-01,  2.47409955e-01,  1.33555075e-02,
        -5.05754590e-01,  6.02311343e-02,  3.76099229e-01,
        -4.41723198e-01, -3.21579307e-01,  2.24642769e-01,
         8.95634592e-02,  1.97509483e-01,  4.68166322e-01,
         4.13273990e-01,  4.91584301e-01,  7.16713369e-02,
        -8.06608200e-02, -4.63184446e-01},
       {-1.42283380e-01, -6.92031980e-02, -2.66671646e-04,
        -4.96908903e-01,  4.97707605e-01,  3.09227109e-01,
         3.99897128e-01,  7.31554925e-02, -1.99418217e-01,
        -3.29151839e-01,  2.91649312e-01,  4.33761626e-01,
        -3.44911397e-01,  3.72440927e-02,  2.82358915e-01,
         4.10632491e-02,  1.50989220e-01, -1.58377141e-01,
         1.77895725e-01,  9.94541869e-02, -1.03122115e-01,
        -4.08641160e-01, -2.24447250e-01,  2.86457449e-01,
        -2.25757644e-01,  2.01316342e-01,  1.03749439e-01,
        -7.23466724e-02,  3.51773888e-01, -4.64972824e-01,
        -1.97613344e-01,  1.84531093e-01},
       {-2.44354188e-01, -3.91012840e-02, -1.04743771e-01,
        -1.04729041e-01,  4.97041911e-01,  3.18222582e-01,
         3.25531244e-01, -5.24313152e-01,  1.24355584e-01,
        -1.19676821e-01,  4.44179446e-01, -9.86409932e-02,
        -1.67369455e-01,  7.91776478e-02, -1.40491620e-01,
         7.77176321e-02, -4.83996049e-02, -2.15985924e-01,
        -2.30472401e-01,  1.06073029e-01,  4.86317128e-01,
        -5.46849489e-01, -4.18149620e-01,  2.15548620e-01,
        -3.42864990e-01,  7.80305192e-02, -6.63159564e-02,
         1.74536973e-01,  1.43249109e-02, -3.29315454e-01,
         2.33862624e-01, -5.07392943e-01},
       {-2.47488871e-01,  2.74031788e-01, -2.62403488e-01,
        -4.65166837e-01,  3.10766369e-01,  4.83037651e-01,
         2.12061256e-01, -4.77682680e-01, -3.24935555e-01,
        -3.22423279e-01,  3.78577471e-01,  5.06370962e-01,
         4.15499434e-02,  3.76278043e-01, -5.89709580e-02,
         5.72999120e-01,  2.43280947e-01, -5.64865887e-01,
        -2.62910843e-01, -1.56765193e-01,  3.82005841e-01,
        -1.34905269e-02, -6.14389300e-01,  5.24937570e-01,
        -4.67870347e-02,  2.70155668e-01,  2.95034319e-01,
         6.18122756e-01,  1.37234896e-01, -2.86715865e-01,
         8.73519555e-02, -1.76532283e-01},
       {-7.17345327e-02,  2.97059119e-01,  1.09584190e-01,
        -1.60654232e-01,  4.36446369e-01,  7.82739371e-02,
         2.04793379e-01,  4.50213589e-02,  2.40658186e-02,
        -4.05942470e-01, -1.50507063e-01,  3.91740501e-01,
        -3.66112679e-01,  1.62646815e-01,  1.14844386e-02,
         2.02600583e-02,  3.61214757e-01,  2.45725662e-01,
         4.51670624e-02, -2.95681320e-02,  2.56825954e-01,
        -3.63921672e-01,  8.02648589e-02, -1.48363769e-01,
        -4.46612924e-01,  3.14201182e-03,  4.16119367e-01,
         1.64710972e-02,  3.67174327e-01, -4.17735726e-02,
        -1.12948738e-01,  1.46978080e-01},
       {-2.94894874e-01, -8.29140563e-03,  2.24404950e-02,
        -7.41440430e-02, -1.70294270e-01,  3.94453347e-01,
        -3.49360034e-02, -1.82178095e-01, -3.39277089e-01,
        -1.48628458e-01,  3.90375346e-01,  5.12079597e-01,
        -2.67050505e-01, -1.43525332e-01,  6.75761253e-02,
         9.20348689e-02,  3.52761865e-01, -3.37930284e-02,
        -3.09096128e-02, -3.79998803e-01,  4.92267847e-01,
        -3.80788088e-01, -3.07852507e-01,  2.13206127e-01,
        -5.65627329e-02,  4.66134548e-01,  7.52660781e-02,
         5.16386449e-01,  6.37558997e-02, -3.07674021e-01,
         4.31193918e-01, -2.95855820e-01},
       {-2.78922796e-01, -3.68122086e-02,  3.07774860e-02,
        -1.90934651e-02,  4.23602164e-01,  1.17317580e-01,
         3.56315114e-02,  2.19002049e-02, -4.06786889e-01,
        -5.15089393e-01, -6.95084780e-02, -4.79009654e-03,
        -4.01664943e-01,  2.55177200e-01, -1.64174259e-01,
        -7.74656758e-02,  1.50336176e-01, -2.76780128e-01,
         1.38524532e-01,  1.35730252e-01, -2.34218966e-02,
         1.41589701e-01, -3.13349664e-01,  3.81308794e-02,
        -1.22936368e-01, -5.71892336e-02,  3.76382887e-01,
         5.13268888e-01,  2.00823158e-01, -2.48341896e-02,
         1.28515378e-01,  9.18730572e-02},
       { 1.07822791e-01,  5.46192110e-01, -9.67632756e-02,
        -5.44625044e-01,  3.95110160e-01,  1.02729678e-01,
         3.89678776e-01, -1.88907653e-01, -4.79825675e-01,
        -5.85436761e-01, -5.03809489e-02,  2.48719141e-01,
        -3.33400339e-01,  4.57788557e-01,  3.22545618e-01,
         1.19365357e-01,  4.96976644e-01, -6.88275173e-02,
        -1.18360976e-02, -1.23656034e-01,  1.37780637e-01,
        -1.05356745e-01,  9.65184271e-02,  2.47261420e-01,
        -5.12591004e-01,  1.93925202e-01,  5.85272908e-01,
         5.69441497e-01,  2.13727206e-01,  6.35863692e-02,
        -7.42255822e-02, -5.55129707e-01},
       { 3.49870473e-01,  1.50502831e-01, -5.96112907e-02,
         3.00096154e-01, -3.32104862e-01, -1.74087375e-01,
         5.55287395e-03,  4.09786910e-01,  2.20624536e-01,
         3.20493668e-01,  1.63994238e-01, -3.96065190e-02,
         1.12668075e-01,  1.35699930e-02, -3.69506963e-02,
        -1.86031133e-01,  4.02831107e-01, -5.74787296e-02,
        -2.70324528e-01, -1.31203696e-01,  1.78268686e-01,
        -2.36019239e-01,  1.54483587e-01,  2.22397342e-01,
         1.95020974e-01, -6.54448047e-02, -2.68209785e-01,
        -3.43938768e-01, -9.11903158e-02,  3.35938931e-01,
         3.16594616e-02,  3.29108477e-01},
       {-2.69761622e-01,  5.70487827e-02,  4.82697487e-02,
         9.64549556e-02,  3.39451343e-01,  2.72263795e-01,
        -3.68754193e-02, -3.59623462e-01, -7.31792077e-02,
         1.24051593e-01,  1.06265604e-01, -1.06120974e-01,
        -8.98944065e-02,  2.85243578e-02, -1.80209920e-01,
         4.52703983e-01,  3.29850644e-01, -3.02792247e-03,
         1.78856924e-01, -2.97639012e-01,  1.18917658e-03,
         7.81664923e-02, -1.60811916e-01, -1.73228472e-01,
         1.57362804e-01, -2.39050239e-01, -1.62409351e-03,
        -7.83365071e-02,  3.18207622e-01,  1.36233196e-01,
         4.08481508e-01, -4.99662943e-02},
       {-4.35397565e-01,  3.93590108e-02, -4.13538247e-01,
         1.40874773e-01,  3.65443081e-01, -9.66529101e-02,
         2.34449834e-01,  2.25308269e-01, -1.27002388e-01,
        -1.35445014e-01,  2.67729044e-01,  6.49511963e-02,
        -1.44237280e-01,  1.95472181e-01, -1.69123873e-01,
         4.59800780e-01,  1.76942900e-01, -4.73554395e-02,
         9.14510787e-02,  2.07450643e-01, -1.40753597e-01,
        -1.59991175e-01, -1.35506108e-01, -1.12634502e-01,
         5.55367880e-02,  2.92483628e-01,  3.59447628e-01,
         1.11803859e-01,  3.10551435e-01,  1.62997618e-01,
         1.04429670e-01,  2.22606912e-01},
       {-1.42721042e-01,  1.97020322e-01, -7.51008913e-02,
        -2.40550965e-01,  1.31132245e-01, -2.81658739e-01,
        -1.89141348e-01, -2.80171931e-01, -1.97345123e-01,
        -3.25669646e-01, -3.90588343e-01, -7.32468739e-02,
         2.39416271e-01,  2.41867051e-01, -2.04092890e-01,
        -9.10718814e-02, -1.03642806e-01, -2.36236140e-01,
         2.96980917e-01, -1.48539230e-01, -6.90872520e-02,
         2.04069838e-01, -2.25495160e-01,  3.12946916e-01,
        -1.43927773e-02,  1.42318964e-01, -1.13872491e-01,
         3.10357008e-03,  1.44850150e-01, -9.33661312e-02,
         1.71788365e-01,  1.10071383e-01}};

double weights2[32][64]= {{-9.18919872e-03,  3.13132405e-01, -1.01412661e-01,
        -3.49764407e-01,  3.33979964e-01,  1.23937346e-01,
         2.45302245e-01,  7.96151757e-02, -1.82768032e-01,
        -4.70587499e-02, -5.07797301e-02,  3.36025447e-01,
         2.77913623e-02,  3.08384210e-01,  7.09720189e-04,
         1.24839596e-01,  1.33967042e-01, -2.67885532e-02,
         2.61508524e-02,  2.39049673e-01, -3.57416421e-01,
         1.06173970e-01,  3.94460887e-01, -3.62559557e-02,
        -7.77936652e-02,  3.90336365e-01,  7.89837819e-03,
         2.10912868e-01,  7.17826709e-02,  3.85253638e-01,
         3.01126599e-01,  3.86488676e-01,  3.17809820e-01,
         3.21621120e-01, -2.54549652e-01, -7.53955543e-02,
         6.54277056e-02, -1.50607275e-02, -3.22355181e-01,
        -1.78466603e-01,  3.17128450e-01, -2.74083674e-01,
        -2.75137693e-01,  2.79587775e-01,  2.20543236e-01,
         2.33555660e-01, -6.30107373e-02, -2.66613252e-02,
        -2.32475977e-02,  3.47954094e-01,  1.40054286e-01,
         3.69008422e-01,  2.47182712e-01,  1.70820475e-01,
         9.22277719e-02, -2.39234731e-01,  1.07750259e-01,
         3.47169936e-01, -1.42584518e-01, -2.04122812e-01,
         3.51381153e-01, -2.63035923e-01,  1.11274868e-01,
         3.90657037e-01},
       { 1.04602613e-01,  4.59159911e-03,  1.84907690e-01,
        -2.27123275e-02,  2.22974285e-01,  1.37641564e-01,
        -1.50526062e-01,  1.28733858e-01,  8.70177224e-02,
         9.51208621e-02,  1.32048324e-01,  2.26648286e-01,
         2.55860388e-01,  4.46579829e-02, -6.42354116e-02,
         4.70756926e-02, -9.41745862e-02, -1.93386272e-01,
        -3.00458595e-02, -1.28264472e-01, -1.65882289e-01,
        -1.22714542e-01, -1.20758690e-01, -6.56517223e-02,
         1.40578514e-02,  1.30355969e-01, -1.74828380e-01,
         1.36244386e-01, -1.54328898e-01,  3.88435125e-02,
         9.94343776e-03, -1.97721854e-01, -1.89690307e-01,
         3.55909206e-02, -1.29795447e-01, -1.85297996e-01,
        -2.05650076e-01, -1.52196512e-01,  2.65426636e-01,
         1.55340984e-01, -8.44069105e-03,  8.34656507e-02,
         2.30646789e-01, -2.12081641e-01, -1.75045222e-01,
        -2.09569409e-01, -2.19124526e-01, -6.19597025e-02,
         5.55294976e-02, -2.70412117e-01, -1.19764619e-01,
        -2.25287512e-01,  7.46287256e-02, -2.69889683e-01,
        -1.56525120e-01,  1.17713556e-01, -1.14032142e-01,
        -1.62014261e-01,  2.54682153e-01,  2.21901089e-01,
        -1.98874295e-01,  7.37457420e-04,  6.16536625e-02,
        -1.14195570e-01},
       { 6.57967627e-02,  3.26274693e-01, -3.07217777e-01,
        -2.02979505e-01, -1.73540693e-02,  2.63240844e-01,
         2.19889522e-01, -2.35895440e-01, -5.10860942e-02,
         1.48581862e-01, -5.60974935e-03, -4.61289361e-02,
        -3.11238080e-01,  3.33667845e-01, -3.47143888e-01,
         3.23115349e-01, -5.41949738e-03,  1.29273087e-01,
        -5.65462969e-02,  2.02682897e-01, -3.33502054e-01,
        -1.21133951e-02,  3.04880887e-01, -3.23134631e-01,
         1.50474787e-01,  3.66684169e-01,  2.50478297e-01,
         1.56552091e-01, -1.09152019e-01,  3.42054099e-01,
         2.27520704e-01,  3.54545861e-01,  1.76753607e-02,
         2.43806005e-01, -3.63945663e-02,  1.99422941e-01,
         2.23720726e-02,  9.96384323e-02, -1.87393248e-01,
        -1.61336556e-01,  8.98349136e-02,  9.65587944e-02,
        -2.69087315e-01,  1.37651160e-01,  8.72411579e-02,
         2.24341065e-01,  9.77919698e-02,  2.05117255e-01,
         2.62234151e-01,  3.57717305e-01,  1.01858474e-01,
         1.84076335e-02,  4.70985323e-02,  5.07022776e-02,
        -4.56746779e-02, -3.00504208e-01,  8.32123589e-03,
         1.04808740e-01, -1.72550559e-01, -1.73508674e-01,
         8.90383348e-02, -1.97282717e-01,  8.00459385e-02,
         2.32982010e-01},
       {-4.86723594e-02,  3.06951523e-01, -3.53394300e-01,
        -3.29854727e-01,  2.85222262e-01,  9.96402726e-02,
         2.76332706e-01,  6.98993281e-02, -3.96636367e-01,
         3.20060492e-01, -1.40789345e-01,  5.37634417e-02,
        -2.85557449e-01,  2.21787333e-01, -2.21746355e-01,
         5.55189364e-02,  3.43542516e-01,  4.03977513e-01,
        -6.96506053e-02, -7.36342296e-02, -3.79350275e-01,
         3.92457694e-01,  1.00291565e-01, -3.03787112e-01,
         9.62348357e-02, -2.17325538e-02,  4.93448041e-02,
         3.06014895e-01, -3.05004150e-01, -8.24105293e-02,
         2.73883790e-01,  1.46388009e-01,  2.28072330e-01,
         4.04060721e-01, -2.35593319e-01,  2.59366184e-01,
         2.74326652e-01, -3.38627160e-01, -5.25705814e-02,
        -3.44452441e-01,  1.30376458e-01, -5.18109128e-02,
        -3.02269101e-01,  2.01589495e-01,  4.50730976e-03,
         2.24735364e-01, -3.26013826e-02,  2.41559431e-01,
         1.65052712e-01,  3.50754172e-01,  2.76566118e-01,
         5.23319421e-03,  1.08593278e-01,  8.66778493e-02,
        -3.27096105e-01, -2.47715726e-01,  3.41140509e-01,
         1.02710739e-01, -1.49377361e-01, -3.41653734e-01,
         1.94297448e-01,  8.95998180e-02,  3.87347102e-01,
         4.67735156e-02},
       {-1.72387153e-01,  1.04411550e-01,  1.68292914e-02,
         3.20210397e-01, -1.55010819e-01, -2.69793868e-01,
        -2.63097107e-01,  1.13046631e-01,  5.66888601e-02,
        -1.75033107e-01,  2.43750617e-01, -2.22168028e-01,
        -4.73730117e-02,  7.81912655e-02,  2.47213244e-01,
        -1.06270783e-01, -9.82567966e-02, -3.67058933e-01,
         1.79452002e-01, -1.34579182e-01,  3.44107449e-01,
        -3.13941389e-01, -8.43487829e-02,  1.47455931e-01,
        -7.24971592e-02, -2.05550008e-02, -2.35552356e-01,
        -1.36691064e-01, -1.81435272e-02, -4.30489816e-02,
         1.25615552e-01, -2.49213651e-01, -2.13221595e-01,
        -3.24196488e-01,  3.40085626e-01, -2.53619045e-01,
        -2.74132371e-01,  3.40556234e-01,  1.43742338e-01,
         2.22221971e-01, -3.08642775e-01,  2.23172028e-02,
        -1.07206948e-01, -2.35560328e-01, -3.20237935e-01,
        -2.55288541e-01, -2.69228399e-01, -8.56582299e-02,
        -1.64215028e-01,  1.06317721e-01, -2.59160250e-01,
        -2.67728090e-01,  8.80248472e-02, -2.76652336e-01,
         1.11842707e-01,  2.63871580e-01, -1.75613001e-01,
         5.44881821e-02,  2.12631762e-01, -7.90760964e-02,
        -3.66830945e-01, -1.24062441e-01, -2.41651416e-01,
        -1.03597045e-01},
       {-1.73835829e-01, -2.89182365e-01,  2.66650349e-01,
         8.34985003e-02, -2.72127628e-01, -1.06573485e-01,
        -2.38032356e-01,  3.18112820e-01,  1.87610313e-01,
        -3.01839173e-01, -4.66910470e-03, -2.56275058e-01,
        -5.55408038e-02, -1.08932883e-01, -1.26303388e-02,
        -4.57767695e-02,  4.82528843e-02, -2.39946499e-01,
         1.06755652e-01,  1.34513378e-01,  1.18614905e-01,
        -5.54175004e-02,  4.84115072e-03, -1.50944488e-02,
        -3.64293367e-01, -1.19974487e-01,  8.73665325e-03,
         6.18726611e-02,  1.45479336e-01, -1.07999213e-01,
        -1.83396041e-01, -3.45513761e-01,  6.57064319e-02,
         1.00518718e-01,  3.41383606e-01, -3.04645211e-01,
        -1.25687346e-01,  1.10973462e-01,  2.15481713e-01,
         1.71577074e-02,  8.57639536e-02,  1.70925129e-02,
         1.98085345e-02,  1.03532281e-02,  2.03460157e-02,
        -1.27022207e-01, -3.13185394e-01, -3.17943960e-01,
        -2.53800809e-01,  1.09568931e-01, -3.34888428e-01,
         1.00311808e-01,  6.16586618e-02,  6.23302460e-02,
         2.72777170e-01, -1.06225476e-01, -4.13759612e-02,
        -2.85921484e-01,  3.36195566e-02, -4.70798612e-02,
         2.46111043e-02,  1.91794142e-01, -2.33169466e-01,
         1.17282987e-01},
       { 1.60786092e-01,  6.43546209e-02,  1.60815760e-01,
         2.60294788e-02, -1.85782582e-01,  1.16008960e-01,
        -2.16286212e-01, -1.44332405e-02,  2.28648707e-01,
         2.35711690e-03,  2.53257364e-01, -1.71838894e-01,
         1.18503220e-01,  1.63340390e-01,  2.03313649e-01,
        -1.67102173e-01, -1.40271753e-01, -2.15527475e-01,
         2.51872182e-01, -1.44008458e-01,  2.92268693e-01,
         7.12727383e-02, -2.93753386e-01, -1.25706717e-02,
        -2.20922425e-01, -1.48539571e-02, -1.50338799e-01,
        -1.05227962e-01,  2.44468451e-01,  8.29090476e-02,
         7.33888522e-02, -2.58781165e-01, -1.42076448e-01,
         7.68131465e-02,  2.51182634e-03,  1.53261423e-01,
        -2.30606034e-01,  2.35073268e-02, -2.35579871e-02,
         9.74579006e-02,  1.02119662e-01,  3.25869441e-01,
        -4.37620170e-02, -5.37703112e-02,  5.94407506e-02,
         1.09053463e-01, -2.23569214e-01, -5.73274642e-02,
        -1.93049535e-01, -1.79522350e-01, -2.83377707e-01,
        -1.96070477e-01, -8.86686444e-02,  1.15356455e-02,
         2.40076721e-01,  2.66392797e-01, -3.22218984e-02,
        -5.82524836e-02,  3.28762770e-01,  2.62393922e-01,
        -3.23573261e-01, -2.09870618e-02,  3.70328799e-02,
        -3.11603814e-01},
       { 3.68034363e-01,  7.60960802e-02, -6.42946064e-02,
        -4.13695127e-02,  1.77618429e-01,  3.75456750e-01,
         1.98076889e-02, -2.11624056e-01, -1.83679149e-01,
         1.63370699e-01, -2.13332087e-01, -1.92913879e-02,
        -9.96259898e-02,  2.45070115e-01, -4.33902025e-01,
         2.14865103e-01,  3.10507983e-01,  2.68027950e-02,
        -3.33977997e-01,  2.86275864e-01, -3.60637635e-01,
         1.78234592e-01,  4.15888906e-01, -3.73078585e-01,
         6.68247649e-03,  1.01422034e-01,  7.79780000e-02,
         3.65083627e-02, -8.82952437e-02,  3.35551471e-01,
         8.81832689e-02,  2.36094430e-01,  2.73803055e-01,
         3.52326006e-01, -4.20313120e-01,  8.43689293e-02,
         1.45157263e-01, -2.36097157e-01, -5.57856588e-03,
        -2.00273469e-01,  3.65143031e-01, -2.01961607e-01,
        -3.81294578e-01,  1.50352851e-01,  9.39404126e-03,
         1.04855541e-02,  4.24355835e-01,  4.08103615e-01,
         2.84266889e-01,  2.16834620e-01,  5.77475987e-02,
         1.20666251e-01,  3.78700942e-01,  3.82139385e-01,
        -1.09888233e-01, -4.56646681e-01,  1.12478204e-01,
         2.16034889e-01, -8.43466520e-02, -4.47630197e-01,
         2.44548306e-01, -1.63387626e-01,  4.14795041e-01,
         3.27634126e-01},
       { 2.15703741e-01, -4.99771610e-02, -2.48645246e-01,
        -2.84889098e-02,  2.44772851e-01,  1.32057324e-01,
        -1.43656909e-01, -2.65761137e-01, -2.70020425e-01,
        -5.25819771e-02, -2.60853320e-01,  1.12915337e-01,
        -1.49813801e-01,  5.35614602e-02, -1.85190797e-01,
         1.51341417e-04, -1.49467319e-01,  1.74533240e-02,
        -3.23531479e-01, -1.12458514e-02, -1.85752407e-01,
        -1.31797016e-01,  4.87448685e-02, -5.28000109e-02,
         1.45697027e-01,  2.55308766e-02,  1.77408636e-01,
        -1.96206793e-01,  2.86431760e-02,  9.61858407e-02,
         2.62131870e-01,  5.56395054e-02, -5.77130243e-02,
         3.02803755e-01,  4.66722138e-02,  3.62853892e-02,
        -5.26116677e-02, -9.21878889e-02, -1.54036388e-01,
        -2.00642839e-01,  2.43635565e-01, -1.09744497e-01,
        -2.26957768e-01,  1.12423681e-01,  1.56829040e-02,
         2.33491421e-01,  1.12901591e-01,  1.64185405e-01,
         2.36008033e-01,  2.87640512e-01, -7.70378932e-02,
         1.31307140e-01, -2.15883087e-02,  1.66319519e-01,
         1.39944941e-01,  7.14832544e-02,  5.08336797e-02,
         2.66770031e-02, -2.73475975e-01, -1.74836680e-01,
         7.79758673e-03, -2.64149964e-01,  3.15831810e-01,
        -1.56662732e-01},
       { 1.63675234e-01, -2.54249689e-03, -1.36044351e-02,
         7.12584630e-02, -4.92128916e-02,  4.27937031e-01,
         1.21744856e-01, -1.15835071e-01,  4.01990265e-02,
         1.40839353e-01, -1.25527248e-01, -4.00241800e-02,
         2.89938711e-02,  2.33313203e-01, -2.17820659e-01,
         1.44956395e-01,  2.24962682e-01, -1.09427590e-02,
        -2.44835347e-01,  2.14276567e-01, -2.43488505e-01,
         5.42454422e-02,  1.98018610e-01, -2.29967579e-01,
         2.25530609e-01,  5.34451427e-03,  3.58688146e-01,
         1.23763658e-01,  3.66374501e-03,  2.98361182e-01,
         2.63976127e-01, -5.93711324e-02,  9.42687169e-02,
         3.55061144e-01, -4.15802971e-02,  2.79402852e-01,
         3.73694867e-01,  6.58370480e-02, -2.94395566e-01,
        -2.85832286e-01,  2.71009475e-01, -1.70349941e-01,
        -9.35609713e-02,  1.54230371e-01,  3.95590961e-01,
         1.70696601e-01, -4.80707036e-03,  1.35018542e-01,
         4.12225604e-01,  1.86432928e-01,  4.16174501e-01,
         3.55923712e-01, -3.68315168e-02,  3.42526317e-01,
        -1.58620030e-01, -2.13331014e-01, -4.72208224e-02,
         3.30983847e-01, -8.54566395e-02,  3.39930765e-02,
         2.28523165e-01, -3.62447709e-01,  4.53162231e-02,
         4.49476093e-02},
       {-3.62300843e-01, -4.23917055e-01,  1.72073931e-01,
         3.49225819e-01, -4.59115148e-01, -4.44470882e-01,
        -4.72101979e-02,  4.96738672e-01,  2.50444204e-01,
        -3.87554824e-01,  3.87434214e-01, -4.39115077e-01,
         3.91285151e-01, -3.72215629e-01,  1.64820477e-02,
        -2.73300558e-01, -1.47181630e-01, -4.53292988e-02,
         2.49675680e-02, -2.98776776e-01,  8.94424245e-02,
        -2.98487097e-01, -4.83840346e-01,  6.95658177e-02,
        -6.17847294e-02, -1.70569912e-01, -2.98275799e-01,
        -3.24896604e-01,  3.96443307e-01, -1.27713934e-01,
        -8.05184245e-03, -3.93021882e-01, -2.47191265e-01,
        -2.12434739e-01,  1.17923714e-01, -2.96290040e-01,
        -1.89368039e-01,  7.43099228e-02,  2.14214981e-01,
         4.78532821e-01, -3.46592844e-01,  1.49082467e-01,
         3.99441451e-01, -4.32436705e-01, -1.51899084e-01,
        -3.81921023e-01, -4.24627572e-01, -1.56674953e-03,
        -2.54218847e-01, -9.05468911e-02, -2.21657738e-01,
        -3.36718112e-01, -9.36369672e-02, -3.20278287e-01,
         4.30552661e-01,  4.28064242e-02, -2.57301005e-03,
        -2.25996807e-01,  4.13716704e-01,  3.83471131e-01,
        -3.44371647e-01,  4.25911009e-01, -2.64200300e-01,
        -2.36285880e-01},
       {-3.15342844e-01, -5.13420045e-01,  3.79029393e-01,
         1.03647135e-01, -4.29745793e-01, -4.35733259e-01,
        -4.73546088e-01,  4.51285571e-01,  1.86394513e-01,
        -5.27135074e-01,  3.74164224e-01, -2.78168283e-02,
         3.31858933e-01, -4.97156590e-01,  3.68062377e-01,
        -3.75918671e-02, -1.35209829e-01, -1.83752626e-01,
         4.85896558e-01, -5.28137386e-01,  2.45301798e-01,
        -4.12046224e-01, -4.39858079e-01,  2.03779295e-01,
        -1.99090406e-01, -7.11972639e-02, -2.05448657e-01,
        -3.24445479e-02,  2.22265407e-01, -3.52508932e-01,
        -2.35815823e-01, -2.34807715e-01, -1.61483899e-01,
        -4.60469753e-01,  5.32234490e-01, -3.29323262e-01,
        -4.20907110e-01,  1.64690867e-01,  3.65652919e-01,
         2.22280651e-01, -3.19265872e-01,  4.02619839e-01,
         4.25456017e-01, -3.41290385e-01, -4.01871294e-01,
        -2.11380079e-01, -8.14929456e-02, -3.53144825e-01,
        -3.33205819e-01, -1.43001229e-01, -4.59626079e-01,
        -4.68119651e-01, -4.72711563e-01, -1.71527475e-01,
         3.61965626e-01,  2.37689078e-01, -2.91800320e-01,
        -1.64321542e-01,  1.78967014e-01,  3.95450071e-02,
        -1.57849655e-01,  1.75794736e-01, -1.91354632e-01,
        -3.69458228e-01},
       {-1.08172968e-01, -9.05775428e-02, -1.78749457e-01,
         7.44899735e-02, -2.21849158e-01, -7.69425705e-02,
         3.27725977e-01, -3.21049988e-01,  8.33774880e-02,
        -1.27979564e-02, -2.45194599e-01,  1.26175970e-01,
         5.46347126e-02, -1.10707216e-01,  2.90960092e-02,
        -1.80822238e-01,  1.96258530e-01, -8.69272649e-02,
        -1.77094862e-01,  2.35189945e-02, -2.60071158e-01,
         1.96567345e-02,  9.12813917e-02, -1.08039401e-01,
         3.03365558e-01,  9.47319716e-02,  2.86238313e-01,
         1.78309277e-01, -2.00213239e-01,  5.59086278e-02,
         1.60729825e-01,  8.65449533e-02, -5.04692383e-02,
         2.83036649e-01, -3.02031031e-03, -1.42843768e-01,
         1.51050940e-01, -1.56536475e-01, -5.40463552e-02,
        -2.68026173e-01,  2.59562403e-01,  3.97705659e-03,
         1.72465399e-01, -2.45588552e-02,  3.07758600e-01,
        -1.79340467e-01, -3.07177156e-02,  6.82911649e-02,
         1.49647817e-01,  2.69770294e-01,  2.03202870e-02,
         1.63915023e-01, -1.57921880e-01,  2.40084156e-01,
         1.73863783e-01, -8.86926427e-02,  9.71054435e-02,
         1.72946870e-01, -7.10367262e-02, -3.63432206e-02,
         2.02257544e-01,  4.50668186e-02,  2.11616695e-01,
         2.61137169e-02},
       {-3.20055157e-01, -3.89535904e-01,  3.73373181e-01,
         2.49131277e-01, -3.81890237e-01, -1.56971082e-01,
        -2.59364098e-01,  2.36707062e-01,  2.47040763e-01,
        -5.71491957e-01,  3.89737457e-01, -4.78209108e-01,
         3.99891794e-01, -4.49986637e-01,  2.20886037e-01,
        -5.61607659e-01, -3.80685180e-01, -9.26109701e-02,
         2.36147344e-01, -4.95104790e-01,  5.63357592e-01,
        -2.87038535e-01, -5.77966809e-01,  4.26210433e-01,
        -1.30836114e-01, -3.53562295e-01, -3.11358988e-01,
        -2.32192069e-01,  5.36308050e-01, -1.87062263e-01,
        -3.49530876e-01, -2.96243310e-01, -1.25444129e-01,
        -1.25630021e-01,  5.13820171e-01, -5.17099619e-01,
        -4.72127289e-01,  2.82720119e-01,  1.68337092e-01,
         3.23377460e-01, -4.22797233e-01,  2.85141826e-01,
         3.47199142e-01, -4.79006022e-01, -2.26078570e-01,
        -3.50810289e-01, -1.85075536e-01, -1.25289783e-01,
        -3.54501218e-01, -2.74776280e-01, -4.03910577e-01,
        -5.28485715e-01, -5.63431501e-01, -7.16833398e-02,
         3.10675740e-01,  1.29999205e-01, -2.25361958e-01,
        -2.60080457e-01,  1.21269144e-01,  2.09975019e-01,
        -2.94020057e-01,  1.86702386e-01, -2.11771533e-01,
        -2.48258114e-01},
       { 5.24614798e-03, -9.87764299e-02,  3.97440828e-02,
         1.45805761e-01,  9.41590443e-02, -2.41853520e-01,
        -1.83057681e-01,  2.55604333e-04, -1.32745892e-01,
         3.30719389e-02,  9.23398435e-02, -3.21500376e-02,
        -3.46340835e-02, -1.15423597e-01,  2.57874787e-01,
        -2.00125396e-01, -4.59183678e-02,  8.33296552e-02,
         3.09494793e-01,  4.11121699e-04,  1.89803392e-01,
        -1.79138809e-01,  1.84843838e-02,  2.62459606e-01,
         7.49078393e-02,  1.09190889e-01, -1.33758456e-01,
        -2.02911675e-01,  5.57366386e-02, -3.17750908e-02,
        -2.11224586e-01,  1.37489242e-02,  4.48637307e-02,
         1.31550029e-01,  4.55915369e-03, -1.39276996e-01,
        -9.68455598e-02, -9.16165635e-02, -1.37012407e-01,
         2.92126715e-01, -1.57722026e-01,  1.44568935e-01,
        -1.83963567e-01, -2.62731940e-01,  1.95675623e-03,
        -8.42944905e-02, -2.34373182e-01, -1.79688372e-02,
         9.26994979e-02,  1.33896038e-01,  9.85969231e-02,
         2.35749707e-02,  7.66260549e-02, -9.13415551e-02,
         2.69321799e-01,  1.51847914e-01,  7.01010525e-02,
        -2.13622198e-01,  2.96416789e-01,  4.22772765e-02,
        -2.56321490e-01, -4.34298860e-03,  1.19241782e-01,
         3.06199156e-02},
       {-9.72051546e-02, -1.24169745e-01, -6.40785694e-02,
         3.76307338e-01, -1.68957319e-02, -3.76508176e-01,
        -7.93466866e-02,  1.17112003e-01, -2.42477152e-02,
        -1.11512095e-01,  2.44378448e-01, -2.75104702e-01,
         7.97579903e-03, -1.68640792e-01, -1.14620458e-02,
        -3.96437883e-01, -2.69342437e-02, -4.03977126e-01,
         1.72588259e-01, -4.88403067e-02,  3.89443427e-01,
        -2.16765925e-01, -4.43981379e-01,  2.45081261e-01,
        -1.71877280e-01, -1.69938177e-01, -4.33534645e-02,
        -4.17726189e-01,  3.26277018e-01, -2.94106483e-01,
        -1.01042651e-02, -2.86338598e-01, -3.79904620e-02,
        -2.61336744e-01,  3.84382457e-02, -2.31788591e-01,
        -4.18195277e-02,  1.10631898e-01,  1.90613747e-01,
         4.14873362e-01, -1.06964543e-01,  4.05712366e-01,
         7.30562881e-02, -5.42612420e-03, -1.10070691e-01,
        -7.05003962e-02,  3.87774296e-02, -1.20652743e-01,
        -1.60659790e-01, -3.66947323e-01, -3.83253992e-01,
        -5.18636219e-03, -3.66619080e-01, -2.57358670e-01,
         2.82604396e-01,  2.25057155e-01, -1.58055216e-01,
        -1.92326650e-01,  3.69519174e-01,  4.11831707e-01,
        -1.01348191e-01,  3.77859980e-01, -3.76792133e-01,
        -4.06629503e-01},
       {-1.16913788e-01, -1.30926454e-02, -9.23311934e-02,
         2.00042054e-01,  7.02667758e-02,  1.63750380e-01,
        -2.15919390e-01,  1.53981850e-01, -6.55172989e-02,
         2.71566138e-02,  2.61325836e-01,  2.22164944e-01,
         2.07704499e-01, -1.67428970e-01, -1.55174509e-01,
        -1.38744131e-01,  1.84526891e-01, -2.20140696e-01,
         8.40736479e-02,  1.73703209e-01,  1.69061348e-01,
         1.03651203e-01, -2.32343018e-01,  8.61477945e-03,
        -3.10368121e-01, -5.50200827e-02, -5.27806692e-02,
         4.44403552e-02,  1.99809119e-01,  3.53963301e-02,
        -2.86860287e-01, -2.71902800e-01, -1.45602584e-01,
         1.35762379e-01, -1.17070906e-01, -2.83337146e-01,
        -1.83116436e-01, -6.31855056e-02,  7.95843452e-02,
        -1.69592708e-01, -1.58743396e-01,  2.63607681e-01,
         8.79241526e-02, -2.78020054e-01, -3.92301753e-02,
        -1.60597652e-01, -3.01655352e-01,  1.53386816e-01,
         6.10381700e-02, -1.15728669e-01, -1.29500091e-01,
        -1.62885532e-01, -2.99280342e-02, -2.37002075e-01,
         2.70980418e-01,  1.30361095e-01,  2.00498551e-01,
        -2.78098792e-01, -7.75576159e-02, -1.52231261e-01,
        -2.85449207e-01,  2.90990084e-01, -1.29976608e-02,
        -1.85405299e-01},
       { 4.17409725e-02,  2.05784097e-01, -3.05730402e-01,
        -1.81696936e-01,  4.60972041e-01,  2.45204419e-01,
         2.72253007e-01, -4.56315614e-02, -4.70182359e-01,
         2.70621866e-01, -1.05593696e-01,  4.36895311e-01,
        -1.64363742e-01,  2.95053035e-01, -3.21504474e-01,
         4.78632599e-02,  3.53342801e-01,  3.15686494e-01,
        -2.61456907e-01,  3.73804986e-01, -4.50850241e-02,
         4.32075441e-01,  1.86701804e-01, -2.87388563e-01,
         3.58958453e-01,  2.60511696e-01,  1.38383925e-01,
         8.47231001e-02,  2.38550385e-03,  2.98188291e-02,
         4.08594966e-01,  3.82560015e-01,  3.85852098e-01,
         7.85022080e-02, -4.47255135e-01,  2.04635695e-01,
         2.35417411e-01, -3.37346755e-02, -4.83172119e-01,
        -3.54413420e-01,  1.26871362e-01, -1.43568506e-02,
        -4.51121747e-01,  2.16898676e-02,  3.98991466e-01,
         2.37288862e-01,  1.27523080e-01,  4.16057199e-01,
         8.42333063e-02,  1.02104753e-01,  7.97858983e-02,
         1.56891569e-01,  2.26894721e-01,  3.07377219e-01,
        -4.35482293e-01, -2.31635392e-01, -1.99581999e-02,
         2.63025016e-01, -2.95540690e-02, -4.10859525e-01,
         4.13556874e-01, -2.31085401e-02,  4.07994390e-02,
         1.29090369e-01},
       {-1.36977481e-02,  4.24455971e-01, -3.40651393e-01,
        -1.57151476e-01,  1.52967885e-01,  1.25642568e-01,
        -1.91890523e-02, -2.57014036e-01, -4.64684695e-01,
         8.97443965e-02, -2.39143834e-01,  1.28500119e-01,
        -3.92745137e-01,  1.02494964e-02, -3.57922584e-01,
         3.55565965e-01,  4.48887080e-01,  8.87987837e-02,
        -4.26599421e-02,  4.65666443e-01, -3.39121908e-01,
         1.98451862e-01, -1.07229305e-02, -1.30524576e-01,
         2.90334016e-01,  2.65458226e-01,  3.45609725e-01,
         4.15337473e-01, -3.43288451e-01,  3.57184201e-01,
         1.48508832e-01,  4.16884899e-01,  1.04761772e-01,
         3.36385071e-01, -1.37759641e-01,  2.91068792e-01,
         3.84086668e-01, -2.43799686e-01,  1.04156155e-02,
        -4.58370984e-01,  1.21360496e-01, -2.41501182e-01,
        -1.28010571e-01,  2.46037573e-01,  4.24021721e-01,
         1.88132487e-02,  3.61856133e-01,  3.48077476e-01,
         8.73009712e-02,  2.19382524e-01,  5.84163703e-02,
         3.07690620e-01,  1.03026196e-01,  2.75166277e-02,
        -2.35901341e-01, -3.40443075e-01,  1.00143395e-01,
         2.24087462e-01, -1.50008023e-01,  1.44781526e-02,
         4.44927216e-01, -3.33621562e-01,  3.94588321e-01,
         4.53801423e-01},
       { 8.60364363e-02,  2.78135240e-01, -8.02234784e-02,
         4.63535115e-02,  2.21972484e-02, -1.53319269e-01,
        -1.54497800e-03, -2.86241531e-01,  4.87538129e-02,
         1.45214513e-01, -2.92907823e-02,  2.60685951e-01,
        -1.93126291e-01,  1.39648154e-01, -1.04534561e-02,
         2.12756500e-01,  3.51411067e-02,  7.42284134e-02,
        -1.61777705e-01,  3.33604068e-02,  1.02241926e-01,
        -3.52281146e-02, -1.47266025e-02, -2.75255710e-01,
         7.77051374e-02, -1.29136845e-01,  3.07492524e-01,
        -5.82222454e-02, -3.08713645e-01, -9.78089590e-03,
         2.85877615e-01,  2.83403665e-01,  2.11656511e-01,
         1.28643811e-01, -3.43149096e-01,  2.19123170e-01,
        -1.38656393e-01,  1.47800818e-01, -2.01140136e-01,
         1.09182782e-01, -7.25238398e-02,  6.76557422e-02,
         1.97573885e-01, -9.35403109e-02,  3.45850378e-01,
         1.48197040e-01,  3.12047929e-01,  6.84144720e-02,
         2.93000251e-01,  1.80567592e-01,  1.47723749e-01,
        -1.68922037e-01,  1.15849882e-01,  2.13483214e-01,
        -2.69058824e-01, -2.81772733e-01, -8.38842764e-02,
         2.78543442e-01, -2.58699626e-01, -3.28163475e-01,
         7.42720366e-02, -2.11370862e-04,  3.30449432e-01,
        -6.67303205e-02},
       { 9.97214243e-02,  5.92075065e-02,  2.81959474e-01,
        -5.63823730e-02, -1.16249688e-01, -2.25618720e-01,
        -9.34594423e-02, -4.63784784e-02, -5.44883199e-02,
        -4.91154799e-03,  1.06822096e-01, -1.54706597e-01,
         2.44382158e-01,  5.81940375e-02,  1.09454945e-01,
        -3.12970877e-01, -1.33399829e-01,  5.08524827e-04,
        -2.82350313e-02, -3.41244578e-01, -1.05594322e-01,
        -3.21671784e-01, -2.88694143e-01,  1.44942254e-01,
        -5.00474572e-02, -3.47523451e-01, -9.18787718e-02,
        -3.65590639e-02,  3.24770510e-01, -9.94937271e-02,
        -2.51379490e-01, -6.31191507e-02, -3.67294699e-01,
        -2.18524367e-01,  1.78958729e-01, -3.44117194e-01,
        -6.32981583e-02, -3.81522179e-02,  2.20520735e-01,
        -2.16175001e-02, -3.62193614e-01, -1.08785242e-01,
         1.96829036e-01, -9.34071392e-02, -6.98330030e-02,
        -1.10203221e-01, -3.70835900e-01,  7.15307295e-02,
         1.05861880e-01,  7.37522468e-02, -1.44571185e-01,
        -2.51460284e-01, -2.81981230e-01, -1.85906962e-01,
        -1.05689310e-01, -4.19714861e-02,  1.19571500e-01,
        -3.19991618e-01,  2.19644293e-01,  1.59139663e-01,
        -2.33451441e-01,  3.30949485e-01, -3.78305525e-01,
        -5.46736307e-02},
       { 3.53483766e-01,  3.95220369e-01, -3.99597675e-01,
        -5.19405492e-02,  2.54784703e-01,  4.21351463e-01,
         1.29289199e-02, -2.65803933e-02, -7.24125281e-02,
         3.91985536e-01, -3.41479868e-01,  1.18205063e-01,
        -2.66673684e-01,  2.15228692e-01, -3.26352209e-01,
         3.25588018e-01,  2.97969818e-01, -4.38140146e-02,
        -1.43921569e-01,  3.24711293e-01, -4.23222184e-01,
         2.59827346e-01,  2.63117135e-01, -1.91268370e-01,
         3.69537592e-01,  3.26096386e-01,  2.77829528e-01,
         3.98256868e-01, -8.22046548e-02,  2.13643208e-01,
         2.89591461e-01,  4.35391068e-01,  4.53027427e-01,
         3.59057775e-03, -3.05178557e-02,  1.29611418e-01,
         3.74805242e-01, -3.23187202e-01, -2.06018090e-01,
         2.18140949e-02,  1.64513960e-02, -9.57307518e-02,
        -4.18945730e-01,  1.73983127e-01,  3.67138982e-01,
         1.11771733e-01,  1.88358903e-01,  1.70786142e-01,
         6.05524816e-02,  3.87242854e-01,  2.23258257e-01,
        -5.71006648e-02,  2.28066355e-01,  4.19439971e-01,
        -3.17184776e-01, -1.72695935e-01,  1.65577710e-01,
         1.24284709e-02, -4.40774113e-01, -6.53850734e-02,
         2.39380166e-01, -3.62564027e-01,  3.04483742e-01,
         3.50018591e-01},
       { 3.44781101e-01,  1.87295005e-01, -3.53051782e-01,
        -1.05494082e-01,  2.10337266e-01,  2.48177975e-01,
        -3.77537385e-02, -5.88224782e-03, -4.83526923e-02,
         2.70682096e-01, -2.06242070e-01,  1.28754556e-01,
        -2.62678973e-02,  5.86193912e-02, -3.50663126e-01,
         1.41425475e-01,  1.41477838e-01,  2.98536390e-01,
        -2.86750138e-01,  2.33037353e-01,  1.07476451e-01,
         1.09679978e-02,  3.30770254e-01, -1.65063798e-01,
         1.50249228e-01, -9.12023932e-02,  1.77893043e-01,
         2.16123372e-01,  5.19597270e-02,  2.07172245e-01,
         3.48067194e-01,  2.17927754e-01,  2.14062899e-01,
         1.34873271e-01, -2.86149383e-01,  3.38662356e-01,
         2.38412648e-01, -2.68099010e-01, -1.97768182e-01,
         6.31529763e-02,  1.99566081e-01, -1.72576964e-01,
        -2.95310199e-01, -2.27680095e-02,  3.18090975e-01,
         9.51160640e-02, -1.06537573e-01,  2.72731364e-01,
         1.71759993e-01,  8.18344057e-02,  2.20558077e-01,
        -6.55316189e-02,  2.70044029e-01,  1.23394199e-01,
        -3.87817740e-01,  2.37633917e-03,  3.09752166e-01,
        -1.07978225e-01, -3.80435884e-01, -3.20019543e-01,
         1.94582373e-01, -1.75826758e-01,  2.23474093e-02,
         1.39574423e-01},
       { 7.05247186e-03, -8.78338814e-02,  2.73373932e-01,
         1.85776383e-01,  1.07711814e-01, -1.98970705e-01,
        -2.91474521e-01,  3.90519112e-01,  3.87635887e-01,
        -1.92711145e-01,  2.52266079e-01, -2.86016673e-01,
         1.64538294e-01, -3.59278262e-01,  2.61518300e-01,
        -6.00532703e-02,  1.31046688e-02, -1.18178554e-01,
         4.44245674e-02,  5.32607250e-02,  1.53052077e-01,
        -2.40944400e-02, -3.75404865e-01,  2.02874050e-01,
        -2.38826677e-01, -1.21301726e-01, -3.63760650e-01,
        -2.39984453e-01,  3.78275871e-01, -3.66627961e-01,
        -3.80948663e-01, -2.48403370e-01, -3.62965673e-01,
        -2.27719247e-02,  2.87526101e-01,  3.51844840e-02,
        -2.52369065e-02,  1.66087970e-01,  6.92830309e-02,
        -3.81929316e-02, -3.36883992e-01,  2.64800519e-01,
        -5.08970320e-02, -2.09653303e-01, -8.90192315e-02,
        -1.31088898e-01,  2.04367619e-02,  7.98354372e-02,
        -3.82434100e-01, -2.61120141e-01, -2.71559417e-01,
        -1.16822712e-01,  4.69313599e-02, -3.51607531e-01,
         3.31203729e-01,  2.41382107e-01, -5.81310205e-02,
        -3.46800655e-01,  2.26377342e-02,  3.62754852e-01,
        -2.54773885e-01,  3.28195721e-01,  7.36765638e-02,
        -3.68378341e-01},
       { 1.17033422e-01,  2.80256450e-01, -1.34204209e-01,
         1.80564523e-01,  1.30017355e-01,  6.03355020e-02,
         2.61157304e-01, -3.21295828e-01, -1.16265640e-01,
         3.25769693e-01,  5.10302838e-03,  1.28298745e-01,
        -1.81489915e-01,  1.13155760e-01, -6.12493493e-02,
         1.77752718e-01,  1.22781381e-01,  1.21127598e-01,
         1.25195801e-01, -9.84092653e-02,  1.57056883e-01,
         9.71577093e-02,  3.35796922e-02, -8.12898204e-02,
        -3.99433859e-02,  1.64543465e-01, -6.65320456e-02,
         2.75983065e-01, -1.85985252e-01, -6.16225123e-04,
         3.22659254e-01,  2.20851690e-01,  2.17591412e-02,
        -1.29355565e-01, -2.95723826e-01, -5.91047183e-02,
         2.91184872e-01,  1.48676261e-01, -4.16515246e-02,
        -2.61487752e-01,  2.79996157e-01, -1.82359651e-01,
         8.01802501e-02,  3.28616738e-01,  1.08141907e-01,
         2.49155208e-01,  1.62546426e-01,  7.61556253e-02,
         6.04686104e-02,  3.38810980e-02,  3.29204857e-01,
         1.28996733e-03,  2.95142889e-01,  2.71449476e-01,
         1.35037288e-01, -1.36565849e-01,  2.88358033e-01,
         8.31906050e-02, -1.21193595e-01, -1.57938972e-01,
         1.04472175e-01,  1.24400325e-01,  2.50997335e-01,
        -9.03258622e-02},
       {-2.08813280e-01, -1.70747966e-01,  3.43898356e-01,
         8.31184387e-02, -3.09995264e-01, -1.86203554e-01,
        -4.04972762e-01,  7.73081928e-02,  1.56619474e-01,
        -1.61389709e-01,  2.23263428e-01, -2.16452315e-01,
         2.55830735e-02, -2.13743925e-01,  1.63677067e-01,
        -1.65981799e-01, -3.17789614e-01, -3.01420927e-01,
         2.68875986e-01, -1.26820400e-01,  1.24033183e-01,
        -9.29403976e-02, -8.15266296e-02,  2.63872743e-01,
        -1.63152337e-01, -3.75897408e-01, -3.79265130e-01,
        -2.03614026e-01,  9.21093598e-02, -2.63876379e-01,
        -3.43875145e-04, -5.90668432e-03,  4.23772000e-02,
        -8.01651180e-02,  8.34014565e-02,  8.02404992e-03,
         4.81253304e-02,  2.78912306e-01,  1.32955268e-01,
         3.92306864e-01, -3.07019383e-01, -8.32136907e-03,
         2.92065918e-01, -3.80618155e-01, -1.73839033e-01,
        -2.35557646e-01, -1.88746989e-01,  1.02842286e-01,
        -7.38817453e-02,  7.47496635e-02, -5.26750274e-02,
        -2.61798561e-01,  5.45970239e-02,  7.47471303e-02,
        -3.60679254e-02, -6.25355821e-03, -1.95312172e-01,
        -3.20203722e-01,  9.40024760e-03,  3.41150403e-01,
        -3.00648272e-01,  2.21379519e-01, -3.52812469e-01,
        -3.95998508e-01},
       {-1.69010758e-01, -2.69242287e-01,  8.22169036e-02,
        -3.61318439e-02, -7.84337446e-02, -4.05567408e-01,
        -3.96841884e-01,  4.49082673e-01,  2.74420142e-01,
        -2.93176651e-01,  3.51809770e-01, -2.61089414e-01,
         1.94998011e-01, -1.57242402e-01,  1.26444444e-01,
        -4.43872362e-02,  1.60070397e-02, -1.69934526e-01,
         2.62300402e-01, -3.50459874e-01,  3.91485751e-01,
        -3.00111085e-01, -9.77335125e-02,  8.90697837e-02,
        -2.22501233e-01, -3.63013268e-01, -1.08258836e-01,
        -2.18629837e-02,  5.04441671e-02, -2.45169818e-01,
         4.23857681e-02, -6.84376284e-02, -1.72910601e-01,
        -1.96869187e-02,  1.00737445e-01, -1.72526047e-01,
        -1.36488184e-01,  1.04871623e-01,  2.91212916e-01,
         4.22024041e-01, -4.36247438e-01,  3.99618745e-01,
         6.42621815e-02, -3.69440675e-01, -3.12249810e-01,
        -3.76242638e-01, -7.79021010e-02,  6.35093078e-02,
        -6.14639297e-02, -9.23445374e-02, -3.76561612e-01,
        -4.39767450e-01, -3.58647645e-01, -2.49692589e-01,
         1.02775067e-01,  3.30663919e-01, -4.21771139e-01,
        -4.37602662e-02,  1.51153147e-01,  2.72627383e-01,
        -1.46795914e-01,  3.98817211e-01, -3.57311547e-01,
        -3.78255069e-01},
       {-4.02121872e-01, -5.78504764e-02, -8.24466199e-02,
         3.29514474e-01, -3.41865301e-01, -1.78265631e-01,
        -6.11889511e-02,  3.07452023e-01,  4.14585173e-01,
        -2.58419782e-01,  1.98254243e-01, -3.63006413e-01,
         3.89818251e-01, -1.88203365e-01,  4.66510728e-02,
        -3.20759892e-01, -3.40829939e-01, -3.34176362e-01,
         3.98843080e-01, -3.95791829e-01,  1.15878604e-01,
        -2.93584228e-01,  7.76049420e-02,  2.92173326e-01,
        -3.54603142e-01, -2.42309105e-02, -1.56701267e-01,
        -2.24939197e-01,  3.94458741e-01, -2.72780985e-01,
        -3.62978250e-01, -2.86093503e-02,  7.83851221e-02,
        -2.45449945e-01,  3.77728462e-01, -2.74817556e-01,
        -1.11297287e-01,  3.54618013e-01,  2.81833678e-01,
         7.58504793e-02, -3.34017277e-01,  3.95890802e-01,
         3.95350643e-02, -8.84786919e-02, -2.46356249e-01,
        -8.50577652e-02, -3.85018528e-01, -1.67073309e-01,
        -2.12167129e-01, -1.20976172e-01, -2.53268212e-01,
        -3.64007145e-01, -3.23053300e-01, -1.68963093e-02,
         4.00001258e-01,  1.54782206e-01, -2.39712559e-02,
        -1.55101746e-01,  1.24969393e-01,  2.09508613e-01,
        -3.22061211e-01,  2.74915576e-01, -3.96873683e-01,
        -2.59464115e-01},
       {-3.47311050e-01, -2.46886969e-01,  3.53384130e-02,
         7.61683658e-02, -1.99445397e-01, -1.55714795e-01,
         4.83705029e-02,  1.16993926e-01,  2.35028833e-01,
        -1.66162476e-01,  1.25558302e-02, -1.43998235e-01,
         2.52022356e-01, -3.10559999e-02, -5.15115587e-03,
        -3.54937434e-01, -4.03362125e-01, -3.49370062e-01,
         2.95934498e-01, -2.78496623e-01,  9.95926261e-02,
        -2.55559862e-01, -2.30362922e-01,  1.43178448e-01,
        -2.83994749e-02, -4.29827809e-01, -1.21705972e-01,
        -1.34679019e-01,  3.65900725e-01, -2.97333390e-01,
        -2.27863818e-01, -3.59602690e-01, -2.17562139e-01,
        -1.59543045e-02, -7.80188059e-03, -3.96604657e-01,
         3.64385843e-02,  5.56254052e-02,  3.30458850e-01,
         4.09725934e-01, -2.48462647e-01,  3.04226577e-01,
        -4.08018790e-02, -2.68439595e-02, -3.94479513e-01,
        -9.00388043e-03, -2.66508192e-01, -2.36729741e-01,
        -2.98141032e-01,  4.37179282e-02, -2.07125708e-01,
        -2.46497020e-01, -3.63648534e-01,  4.21308875e-02,
         1.42041013e-01,  3.60353664e-02, -2.96084791e-01,
        -2.35863790e-01,  1.85177073e-01,  1.85900778e-01,
        -1.12517186e-01,  6.23049736e-02, -3.28216583e-01,
        -4.64485176e-02},
       { 1.72388166e-01,  1.70170337e-01, -3.56389195e-01,
        -3.10904384e-02,  2.25928083e-01, -3.11046392e-02,
         2.70516485e-01,  8.22449327e-02, -3.40928972e-01,
         2.13944525e-01, -3.55307698e-01, -1.01421714e-01,
        -7.12270811e-02,  2.55008399e-01,  7.20171183e-02,
         2.49438271e-01, -1.07659496e-01,  3.87465298e-01,
        -6.59146085e-02,  2.45441511e-01, -1.48906380e-01,
         3.84748161e-01,  1.95350796e-01, -3.39425355e-01,
         1.18102603e-01,  4.46491279e-02,  3.98302048e-01,
         1.46208465e-01, -3.58490385e-02,  9.13233161e-02,
         3.51832092e-01,  4.01470840e-01,  2.27105275e-01,
         1.58568114e-01, -2.12125972e-01,  2.57160783e-01,
         2.56628245e-01,  5.11003435e-02, -6.92333803e-02,
        -3.30561489e-01,  2.50408351e-01, -4.09936786e-01,
         7.39946365e-02,  1.02812707e-01,  2.91877184e-02,
         2.77702689e-01,  1.08121090e-01,  3.37592274e-01,
         8.62384737e-02,  2.36573726e-01, -2.53149942e-02,
         9.15126950e-02,  2.18913302e-01,  2.69255519e-01,
         4.22772802e-02, -8.31386521e-02,  3.71965259e-01,
         1.77944556e-01, -3.86311203e-01, -2.25373358e-01,
         3.57896864e-01, -2.75122792e-01,  3.60943377e-01,
        -2.17877738e-02},
       {-5.71819425e-01, -3.62465024e-01,  2.82680064e-01,
         1.51701808e-01, -3.99044007e-01, -5.30265868e-01,
        -1.35094300e-01,  2.89650679e-01,  2.82699674e-01,
        -1.54332504e-01,  4.53949451e-01, -3.33245754e-01,
         1.35198340e-01, -2.22576812e-01,  4.13744301e-01,
        -1.15332715e-01, -4.44033623e-01, -3.81001025e-01,
         2.84366637e-01, -1.82152092e-01,  5.59271693e-01,
        -5.73619425e-01, -3.41541082e-01,  5.00279903e-01,
        -5.61223805e-01, -2.28358746e-01, -4.31403577e-01,
        -1.61191583e-01,  3.79772753e-01, -5.85401595e-01,
        -5.13042688e-01, -6.01154864e-01, -2.09152862e-01,
        -2.26730227e-01,  5.00919521e-01, -2.08504975e-01,
        -3.89053196e-01,  1.66116089e-01,  2.77284414e-01,
         2.68241376e-01, -5.69009066e-01,  5.24679720e-01,
         2.71816045e-01, -2.78722912e-01, -2.97768027e-01,
        -5.62367678e-01, -4.23666388e-01, -5.56267738e-01,
        -1.79919973e-01, -4.11004752e-01, -4.17800933e-01,
        -5.93321145e-01, -5.70323408e-01, -9.88800377e-02,
         2.22500160e-01,  2.23613575e-01, -1.42583176e-01,
        -4.58715469e-01,  1.88185468e-01,  3.01301837e-01,
        -2.00956002e-01,  1.07696153e-01, -2.83969432e-01,
        -4.40525591e-01},
       { 2.62385726e-01,  1.89255238e-01,  6.98857307e-02,
        -3.48908663e-01,  5.56047373e-02,  4.01830345e-01,
         5.61177842e-02, -2.77660549e-01, -3.05372715e-01,
         6.92206472e-02, -3.73454303e-01, -5.69409654e-02,
        -8.72766078e-02, -8.00108686e-02, -3.54989588e-01,
         3.65232080e-01,  8.81928727e-02,  1.66369885e-01,
        -2.14515790e-01,  3.94906968e-01, -5.07625118e-02,
         1.85959324e-01,  1.21483363e-01, -1.31049111e-01,
         3.03072184e-01,  2.35824600e-01,  2.93530285e-01,
         8.40609893e-02,  3.58414240e-02,  1.25148982e-01,
         8.55178833e-02, -2.42806762e-03,  8.25017542e-02,
         3.72630388e-01, -3.62869818e-03,  3.94701421e-01,
         2.07979113e-01,  4.02520299e-02,  7.53274858e-02,
        -2.95061439e-01,  1.22628853e-01, -2.25952938e-01,
        -2.66889453e-01,  2.94322640e-01, -5.07440716e-02,
         1.73783764e-01,  3.01988989e-01,  2.70448565e-01,
         1.94910794e-01,  2.93346375e-01,  1.40116781e-01,
         3.29908803e-02,  4.22857672e-01,  3.66378844e-01,
        -2.00781256e-01, -1.94483772e-01,  2.12382689e-01,
         3.11134104e-02, -1.80769861e-01, -1.92212939e-01,
         2.91877389e-01,  1.39278302e-04,  2.63316065e-01,
         2.35899314e-02}};

double weights3[64][128]= {{-1.73499770e-02,  3.31425458e-01, -3.11813504e-01,
         3.04922700e-01, -2.74814010e-01, -1.14669681e-01,
         2.17018694e-01, -2.64048845e-01,  4.15839814e-02,
        -1.13062695e-01, -3.29579592e-01, -1.28970250e-01,
         2.55789071e-01,  3.16267490e-01,  2.00351015e-01,
        -2.00968105e-02, -1.24341331e-01,  3.14337343e-01,
        -2.72787899e-01, -1.53569341e-01,  1.88339382e-01,
        -2.18004420e-01,  1.74759626e-01, -7.93401822e-02,
        -7.88275823e-02, -1.63017020e-01, -1.27726436e-01,
        -3.14410657e-01, -1.72678962e-01,  7.29444101e-02,
         2.07561672e-01, -3.34968537e-01,  2.89842039e-01,
         2.79995501e-01,  1.89188898e-01,  2.74261534e-01,
        -2.44423285e-01, -3.11631650e-01, -3.51459861e-01,
        -6.23365194e-02,  3.40080589e-01, -1.01914227e-01,
         1.42663524e-01, -1.25707701e-01,  1.62019223e-01,
        -3.78632285e-02,  3.29265222e-02,  1.26118809e-01,
        -3.18335861e-01, -3.56780052e-01, -6.11743666e-02,
        -2.81090438e-01,  2.02782989e-01,  2.96193004e-01,
        -1.32278562e-01,  1.80758968e-01,  3.17187190e-01,
        -5.72314709e-02,  3.43627334e-01, -2.70751238e-01,
         1.27561852e-01,  1.05453208e-01, -1.32811561e-01,
        -4.47614491e-02,  1.62544280e-01,  2.80559100e-02,
        -3.10646147e-01, -9.60985273e-02,  2.19060794e-01,
         2.38184214e-01, -3.69831957e-02, -3.02810103e-01,
        -2.49981299e-01,  8.12967122e-02,  9.80311260e-03,
         1.23429038e-01, -1.50690943e-01, -2.33500957e-01,
        -6.77062422e-02,  2.80062318e-01, -9.50568020e-02,
         2.77379334e-01,  3.51888299e-01, -2.73041248e-01,
        -1.52680039e-01,  1.82240680e-01,  8.23913962e-02,
         8.23576897e-02, -6.90542459e-02, -1.86139360e-01,
         3.28886122e-01,  2.06562635e-02, -1.23720653e-01,
         3.33902627e-01,  2.36735508e-01,  1.13966055e-01,
        -1.67610824e-01, -1.89988494e-01,  1.36274412e-01,
        -2.14288071e-01, -2.69305259e-01, -2.94731468e-01,
         2.15236649e-01,  1.11589424e-01, -1.55072585e-02,
        -4.88847122e-02,  5.58885112e-02,  2.80351341e-01,
        -2.83037156e-01, -3.50133628e-01, -9.17121470e-02,
         8.37429464e-02,  2.02050224e-01,  2.42545992e-01,
        -1.81125760e-01, -2.75387377e-01,  6.28653169e-02,
        -2.72922456e-01,  1.97289109e-01, -1.11391749e-02,
         2.83526391e-01, -1.89475685e-01, -2.72650421e-02,
        -2.15036824e-01,  2.45550945e-02,  1.76555976e-01,
        -4.82038446e-02,  1.32129565e-01},
       {-5.27153723e-02,  2.76751399e-01, -2.53454268e-01,
         2.62782663e-01, -2.05817848e-01, -6.49813190e-02,
         6.63541332e-02, -3.50168914e-01,  1.86881110e-01,
        -1.20259300e-01, -2.08032392e-02, -1.75154477e-01,
         1.51879817e-01,  2.38099694e-01,  2.03617901e-01,
        -2.31644541e-01, -2.15996131e-01,  3.41342002e-01,
        -3.17856133e-01, -2.58988351e-01,  4.27619740e-02,
        -9.05996785e-02,  1.15704425e-01, -3.93379368e-02,
        -9.70784202e-02, -2.00225301e-02, -1.37608707e-01,
        -2.36980602e-01, -3.67058031e-02,  3.27378601e-01,
         2.94994563e-01, -2.68030375e-01,  3.19694489e-01,
         6.14644364e-02,  6.20904304e-02,  3.06242406e-01,
        -3.26496363e-01, -9.58594959e-03, -2.61301875e-01,
        -2.11216196e-01,  1.61720410e-01, -1.57091483e-01,
         1.48858324e-01, -1.08259305e-01,  2.26890326e-01,
        -6.52762875e-02,  1.77526206e-01,  2.85803854e-01,
        -5.80465011e-02, -3.27675879e-01, -7.19103962e-02,
        -2.59624451e-01,  1.62857369e-01,  3.28021526e-01,
        -2.28835911e-01,  2.12915167e-01,  2.36650273e-01,
        -3.24766308e-01,  1.19946748e-02, -2.22105458e-01,
         1.44275233e-01,  1.34026140e-01, -2.57699639e-01,
        -1.48250714e-01,  2.01214343e-01,  6.90715853e-03,
        -4.35527079e-02, -3.41461807e-01,  1.64005443e-01,
         1.36393875e-01, -2.19806314e-01, -3.33788663e-01,
        -2.72572964e-01,  1.17671363e-01,  7.88862482e-02,
         2.39902303e-01, -6.05292320e-02, -6.77232221e-02,
        -4.34937589e-02,  1.69109821e-01, -1.56332240e-01,
         1.79450110e-01,  2.30166823e-01, -2.69748837e-01,
        -1.03236668e-01,  1.59274951e-01,  5.92798814e-02,
         2.27200538e-01, -1.44367561e-01, -2.93556750e-01,
         4.51784320e-02,  1.62049115e-01, -6.97059631e-02,
         1.95885479e-01,  3.26834470e-01,  1.76194474e-01,
        -3.43479186e-01, -1.38232484e-01,  2.97668695e-01,
        -2.08731443e-01, -3.48157346e-01, -1.11193247e-01,
         3.14960569e-01,  9.19552892e-02, -2.55669177e-01,
        -1.53247342e-01,  2.92747736e-01,  9.21289995e-02,
        -2.20925331e-01, -1.80772487e-02, -3.58847797e-01,
         2.65385211e-01,  3.10303539e-01,  2.51045257e-01,
        -3.04152727e-01, -3.37351233e-01,  3.36851805e-01,
        -1.28100723e-01, -1.33169992e-02, -3.06542039e-01,
         2.30781585e-01, -7.27239177e-02, -2.85179466e-01,
        -1.06212057e-01,  2.19005391e-01,  9.74992737e-02,
        -3.34115654e-01,  3.06392074e-01},
       { 1.86734840e-01, -2.03191951e-01, -2.81962585e-02,
        -1.37665063e-01,  1.89074293e-01,  1.07923388e-01,
        -2.22642586e-01,  1.69509858e-01, -2.75025636e-01,
         1.44850999e-01,  2.40282401e-01,  2.80057997e-01,
        -2.58728206e-01, -2.75233448e-01, -1.58616155e-01,
         1.63329720e-01, -2.19684234e-03, -2.79531956e-01,
         2.83860475e-01,  1.74629584e-01, -1.14911094e-01,
         2.09271476e-01, -2.29462832e-01,  1.80039451e-01,
         2.86373526e-01,  4.95615192e-02,  2.84092247e-01,
         2.14941800e-01,  2.62958616e-01, -3.15441459e-01,
        -3.71474889e-03,  2.22236048e-02, -2.11158738e-01,
        -8.48488882e-03, -2.43180424e-01, -2.55036235e-01,
         2.01674663e-02,  2.10857749e-01,  1.34802172e-02,
         2.60971814e-01, -1.98251754e-01,  2.47636527e-01,
        -2.42994845e-01,  9.15401727e-02, -3.13557744e-01,
         3.67116113e-03, -7.48744309e-02, -7.22796991e-02,
         1.69667557e-01,  2.48004884e-01,  1.27774328e-01,
         1.36081338e-01, -1.77930728e-01, -3.08930755e-01,
         1.00867003e-01, -3.08134913e-01, -2.87115306e-01,
         6.14574850e-02, -9.07083973e-03,  2.90533066e-01,
        -1.68150058e-03, -2.46022046e-01, -5.04847616e-03,
         2.51626968e-01, -1.81775257e-01, -9.92903113e-03,
         7.49858916e-02, -1.57937650e-02, -1.61208227e-01,
        -2.31841981e-01,  1.39006138e-01,  3.03353257e-02,
         6.63799495e-02, -1.91820294e-01, -1.36172757e-01,
         1.88310593e-02,  3.27970237e-01,  1.88105196e-01,
         7.55389966e-03, -1.99702054e-01,  2.08613113e-01,
        -2.58359253e-01, -1.83231011e-02,  2.69514740e-01,
         1.94522217e-01, -2.21035168e-01, -5.08107059e-02,
        -1.31015420e-01,  1.00386120e-01,  1.20316967e-01,
        -1.44719213e-01,  1.18872812e-02,  1.80931300e-01,
        -2.53742695e-01, -7.58135840e-02, -1.84030250e-01,
         3.13552201e-01,  4.81335633e-02, -2.98308711e-02,
        -1.04708327e-02,  2.11394548e-01,  1.64160486e-02,
        -1.10701352e-01, -1.66852698e-02,  2.28053361e-01,
         8.23464394e-02, -1.00779347e-01,  2.22823452e-02,
         7.09033385e-02, -7.84094073e-03,  3.09588104e-01,
        -6.21510260e-02, -1.77893043e-01, -3.11368406e-01,
         3.19350123e-01,  1.43911704e-01, -1.05486989e-01,
         3.24597955e-02, -1.45051986e-01,  3.91002409e-02,
         2.51691826e-02,  2.92927563e-01, -4.74254787e-03,
         2.79362172e-01, -1.78677365e-01, -8.65174010e-02,
         3.18385571e-01, -1.18579447e-01},
       { 2.50198424e-01, -1.67793743e-02,  1.52272016e-01,
        -1.75814610e-02, -1.60868689e-02,  3.17083836e-01,
        -9.13276225e-02,  1.83306664e-01, -2.99300432e-01,
         3.06167662e-01,  1.92716330e-01,  1.21351257e-01,
        -1.00790793e-02, -1.23357393e-01, -1.59452990e-01,
         1.33120701e-01,  7.84068853e-02, -2.19454840e-01,
         1.32148221e-01, -1.83953289e-02, -3.09360772e-01,
         2.88793504e-01, -2.45945573e-01, -2.15110311e-04,
        -5.96114527e-03,  1.61937669e-01,  2.01101869e-01,
         2.05300257e-01,  1.12535335e-01, -1.34466156e-01,
        -2.65327841e-01, -1.98376812e-02, -5.39739802e-02,
        -4.21920270e-02, -8.69718418e-02,  1.19366888e-02,
         4.15997803e-02,  2.45866403e-02, -8.93441401e-03,
         5.01543991e-02, -3.74650322e-02,  6.23619184e-02,
        -5.42295054e-02,  9.76364166e-02, -1.00425825e-01,
         8.04888234e-02, -2.85397857e-01, -8.08506235e-02,
         3.09468001e-01,  1.40985996e-01,  1.04879923e-01,
         3.03742439e-02, -3.21650743e-01, -3.03746462e-01,
         7.44360313e-02, -4.50084209e-02, -1.72320381e-01,
         2.93082893e-01, -2.08832532e-01,  3.21480244e-01,
        -2.60982871e-01, -2.83009440e-01,  2.68822201e-02,
         3.79146226e-02, -3.19292992e-01, -2.44054403e-02,
         1.96170449e-01,  1.93263978e-01, -2.53549904e-01,
        -1.48252413e-01,  1.53051451e-01,  2.01542169e-01,
         1.62071601e-01, -2.38111079e-01, -6.86649010e-02,
        -8.49326402e-02,  2.60479331e-01,  3.03363115e-01,
         6.98545948e-02, -1.58268139e-01, -4.82803490e-03,
        -2.21814498e-01, -6.68588206e-02,  3.24384868e-01,
         7.69741312e-02, -1.90376773e-01, -2.63316184e-01,
        -1.04011111e-01,  2.19395533e-01,  7.50449970e-02,
        -1.49117149e-02, -1.64521068e-01,  2.75506303e-02,
        -2.24107891e-01, -1.98996142e-01, -1.15607649e-01,
         2.60689259e-01,  6.75318390e-02,  1.07056275e-02,
         2.53364384e-01,  3.62743922e-02,  2.85303742e-01,
        -2.85689652e-01, -1.63970560e-01, -3.94696137e-03,
         1.48776814e-01, -5.50334454e-02,  2.58649811e-02,
        -6.17620582e-03,  1.16177410e-01,  2.13349193e-01,
        -2.76714683e-01, -1.01112150e-01, -4.63034101e-02,
         9.67148468e-02,  1.23874091e-01, -9.27595198e-02,
         1.00733610e-02,  3.11483722e-02,  2.87124310e-02,
        -2.74656713e-01,  2.08200626e-02,  2.35657990e-01,
         2.20654830e-01, -7.66478553e-02, -9.66630951e-02,
         4.47434187e-02, -1.95144519e-01},
       {-1.76606178e-01,  3.29872876e-01, -8.21043253e-02,
         2.79411554e-01, -5.48379123e-02, -2.64876634e-01,
         1.15368411e-01, -7.68575147e-02,  1.13364302e-01,
        -8.14591870e-02, -2.45002791e-01, -1.27886787e-01,
         2.54580110e-01,  1.61093831e-01,  6.10503405e-02,
        -2.04619560e-02, -1.13656051e-01,  2.78273404e-01,
        -1.03121847e-01, -3.70912701e-02,  2.83951998e-01,
        -7.43796900e-02,  8.26292485e-02, -2.02732496e-02,
        -1.35363549e-01, -1.57227948e-01, -1.44930571e-01,
        -2.30777383e-01, -2.53578693e-01,  1.98900197e-02,
         2.54830211e-01, -1.53310105e-01,  1.30405590e-01,
         3.24895948e-01,  2.59852141e-01,  3.13446075e-01,
        -2.16185749e-01, -8.02622437e-02, -2.79944539e-01,
        -1.30676910e-01,  3.38028908e-01, -7.61628747e-02,
         2.51848638e-01, -3.02944362e-01,  1.43637374e-01,
        -1.26456413e-02,  3.27766716e-01,  2.56057322e-01,
        -7.71991163e-02, -2.07308203e-01, -2.37152800e-01,
        -2.59053223e-02,  1.71023726e-01,  4.06969190e-02,
        -1.03894614e-01,  2.36656308e-01,  2.33119458e-01,
        -2.50249267e-01,  2.28579804e-01, -1.29324511e-01,
         1.18767597e-01,  1.42307043e-01, -2.20756143e-01,
        -5.31983078e-02,  1.52596980e-01,  1.98307753e-01,
        -3.46160263e-01, -3.64528038e-02,  1.00209020e-01,
         2.78019458e-02, -8.57900530e-02, -3.13478321e-01,
        -1.94811504e-02,  1.00255281e-01,  1.53608307e-01,
         2.12224796e-01, -1.25116765e-01, -3.35963257e-02,
        -1.19902596e-01,  6.70629963e-02, -6.64275587e-02,
         1.66414690e-03,  5.44066578e-02, -2.07449868e-01,
        -1.64301708e-01,  1.44196376e-01,  2.28571728e-01,
         1.94125950e-01, -3.22290629e-01, -1.64980635e-01,
         3.11118007e-01,  9.77387130e-02, -6.10405020e-03,
         1.44838497e-01,  2.69883484e-01, -3.85751319e-03,
        -3.02691281e-01, -7.67489953e-04,  1.95693731e-01,
        -2.40021005e-01, -1.39378104e-03, -1.67555109e-01,
         2.61049300e-01,  1.82919741e-01, -2.73817062e-01,
        -2.52129614e-01,  1.05985574e-01,  2.85621136e-01,
        -9.05667767e-02, -1.93265915e-01, -8.56221020e-02,
         2.96237260e-01,  4.39078994e-02,  1.11862496e-01,
        -9.08411145e-02, -1.52487800e-01,  1.34399876e-01,
        -1.03834204e-01,  4.72486243e-02, -1.24201767e-01,
         1.18486084e-01, -1.74101502e-01, -9.38329920e-02,
        -3.58091086e-01,  2.23748609e-01,  9.37528163e-03,
        -1.98383823e-01,  3.37992191e-01},
       {-9.87397432e-02,  3.05652708e-01, -2.34877244e-01,
         3.57944131e-01, -3.31892222e-01, -3.30441803e-01,
         9.39745754e-02, -2.71144599e-01,  1.28006026e-01,
        -6.65735230e-02, -5.17127775e-02, -3.39398026e-01,
         4.28096913e-02,  2.29090303e-01,  2.27247775e-01,
        -3.48515540e-01, -3.08535304e-02,  2.66078889e-01,
        -3.36631611e-02, -1.58149585e-01,  2.03101680e-01,
        -2.44588196e-01,  2.64667183e-01, -9.89315286e-02,
        -2.19979778e-01, -9.31739341e-03, -1.29016832e-01,
        -1.86049864e-01, -1.98394477e-01,  8.42287093e-02,
         2.14483261e-01, -2.04084456e-01,  8.90110582e-02,
         3.19849730e-01,  8.20312873e-02,  2.63283402e-01,
        -1.37086272e-01, -1.61235705e-01, -3.26676853e-02,
        -3.47952992e-02,  1.54264987e-01, -1.26568928e-01,
         7.33412504e-02, -9.75374132e-03,  2.20252007e-01,
        -7.34362155e-02,  2.81209052e-01,  1.94973737e-01,
        -2.24729031e-02, -8.01514760e-02, -1.29580185e-01,
        -3.98642384e-02,  3.02406967e-01,  2.88674891e-01,
        -2.30866194e-01,  2.30015337e-01,  7.17444345e-02,
        -4.53933589e-02,  2.52962440e-01, -1.59944803e-01,
         2.67508417e-01,  9.91572589e-02, -9.51171368e-02,
        -3.21294367e-01,  6.35170117e-02,  2.45785356e-01,
        -9.25362259e-02, -1.57238245e-01,  8.12651441e-02,
         3.51535797e-01, -5.11559471e-02, -1.42844319e-01,
        -1.09786324e-01,  1.09604135e-01,  2.74796396e-01,
         2.31397241e-01, -1.69008777e-01, -1.32883415e-01,
        -1.91021059e-02,  1.82876050e-01, -3.17441404e-01,
         3.19460183e-01,  2.83788234e-01, -8.70073661e-02,
        -1.07704088e-01,  2.22676769e-01,  1.69323862e-01,
         2.39950225e-01, -3.05144966e-01, -3.56532007e-01,
         3.05249363e-01,  2.54186213e-01, -2.07898200e-01,
         2.30667204e-01,  1.89345907e-02,  2.02911511e-01,
        -1.72524467e-01, -2.77302951e-01,  1.32204458e-01,
        -6.08287007e-02, -7.28764236e-02, -2.59124368e-01,
         1.68502167e-01,  2.23507747e-01, -7.93266073e-02,
        -2.60456264e-01,  2.34623268e-01,  9.58714783e-02,
        -1.15395956e-01, -3.20969045e-01, -3.42299402e-01,
         2.55083203e-01,  1.29923701e-01,  1.72818191e-02,
        -3.05449218e-01, -2.90235907e-01,  2.05708593e-01,
        -2.55518168e-01,  3.22554827e-01, -2.66968638e-01,
         2.48380080e-01, -1.93075493e-01, -1.59623086e-01,
        -3.02112311e-01,  2.85652161e-01,  2.79566586e-01,
        -1.03607543e-01,  3.91467055e-03},
       {-3.08218777e-01,  2.31487863e-02, -1.64783344e-01,
         1.82029501e-01, -2.37712339e-01, -1.39882124e-03,
         4.58437502e-02, -6.52466491e-02, -4.65432275e-03,
        -5.06297573e-02, -1.73954740e-01, -9.76960286e-02,
         4.47978601e-02,  4.10306193e-02,  1.84858114e-01,
        -2.95602888e-01, -2.99293369e-01,  2.73668528e-01,
         1.99363865e-02, -1.00619242e-01,  1.83434889e-01,
        -9.25217941e-02,  2.16892555e-01, -2.64635056e-01,
        -7.01543456e-03, -1.20222077e-01, -1.73400357e-01,
        -2.64151245e-01, -1.72877237e-01,  4.24404368e-02,
         2.22684339e-01, -2.54921943e-01,  1.19926661e-01,
         2.03837454e-01,  9.73134339e-02,  6.20473735e-02,
        -9.21648089e-03, -6.93202540e-02, -2.42023822e-02,
        -2.50951082e-01,  2.67245859e-01, -1.32455990e-01,
         1.27880916e-01, -2.91097641e-01,  3.00728261e-01,
        -1.20923720e-01,  1.46973178e-01, -3.21210884e-02,
         2.33797915e-02, -1.97306901e-01, -2.53848702e-01,
        -8.02501664e-03,  2.96334922e-01,  2.85274714e-01,
        -1.40614480e-01,  1.51550725e-01,  2.01818272e-01,
        -2.26534739e-01,  2.71021187e-01, -1.79365799e-01,
         2.88747072e-01,  1.34269401e-01, -6.10850640e-02,
        -3.14328611e-01,  2.52328277e-01,  4.41961773e-02,
        -2.17990384e-01,  2.03795005e-02,  6.89521879e-02,
         6.78285956e-02, -5.76043762e-02, -9.55836028e-02,
        -2.35649124e-01,  9.76391584e-02,  1.38835296e-01,
         4.24731188e-02, -8.34770650e-02, -2.68470824e-01,
        -7.88896680e-02,  2.81916857e-01, -1.05512112e-01,
         2.21694902e-01,  3.09774548e-01, -1.82106107e-01,
        -2.06396669e-01,  5.30180037e-02,  1.40643880e-01,
        -9.71499365e-03, -1.87295943e-01, -2.49525428e-01,
         3.12264472e-01,  3.15782398e-01, -2.69118994e-01,
         2.06676289e-01,  1.80552244e-01,  9.30273086e-02,
         2.22493187e-02, -8.86527970e-02,  2.31777146e-01,
        -2.19042152e-02, -3.16226274e-01, -3.00326169e-01,
         1.98044628e-01,  1.22424923e-01, -1.74353227e-01,
        -1.39504835e-01,  9.55264866e-02,  5.48996404e-02,
        -1.57880157e-01, -1.56849012e-01, -2.44607583e-01,
         2.67058074e-01, -2.46205926e-03,  1.17074676e-01,
        -1.45650193e-01, -2.41028994e-01,  2.52979577e-01,
        -5.74613921e-02,  2.84978807e-01, -8.61363262e-02,
         7.17423335e-02, -1.41602531e-01, -1.03978954e-01,
        -1.44107938e-01,  9.26840492e-03,  4.94556911e-02,
         1.39307119e-02,  1.37191385e-01},
       { 1.54298365e-01, -2.95519114e-01,  2.39810273e-01,
        -2.23767310e-01,  2.54268646e-01,  1.23989880e-02,
        -2.66311556e-01,  4.47798520e-02, -1.30014226e-01,
         1.84158579e-01,  1.52357057e-01,  1.45251155e-01,
        -9.74835083e-03, -1.98762372e-01, -1.88491330e-01,
         1.48679987e-01, -1.28548034e-02, -2.02483028e-01,
         1.35580391e-01,  1.05896704e-01, -2.55453140e-01,
         2.35124141e-01, -1.47022322e-01, -1.48054203e-02,
         2.19631478e-01,  3.01350594e-01,  3.28296065e-01,
         1.42319173e-01,  2.53167063e-01, -1.79703221e-01,
        -1.85325637e-01,  1.32229645e-02, -3.29493105e-01,
        -1.67141795e-01, -1.96061924e-01, -3.26082319e-01,
         1.20873898e-01,  1.42016873e-01, -5.95364906e-03,
         1.42085642e-01, -3.45893055e-02,  3.07820410e-01,
        -1.71898901e-01,  7.48129264e-02, -2.48856902e-01,
         3.20772499e-01, -1.44184485e-01, -3.10637563e-01,
         1.59283817e-01,  3.76728587e-02,  8.11714381e-02,
         2.09113955e-01, -4.21753675e-02, -8.72027874e-02,
         1.34990394e-01, -2.83431977e-01, -2.34473467e-01,
         2.23546043e-01, -1.34506822e-01,  1.58921722e-02,
        -2.24639192e-01, -2.38001913e-01,  1.83456421e-01,
         1.93931445e-01, -1.47841826e-01, -2.82141920e-02,
         1.77662790e-01,  2.54196167e-01, -1.44493923e-01,
        -5.04261218e-02,  1.07443675e-01,  1.62875161e-01,
         2.49660656e-01, -1.56687319e-01, -1.88090131e-01,
        -2.90695369e-01,  1.81753069e-01,  2.63809085e-01,
         1.55287385e-01, -1.93220273e-01,  3.53151299e-02,
        -9.42797884e-02, -2.37191200e-01,  3.18847001e-01,
         3.32501084e-01, -3.23510207e-02, -2.30249226e-01,
        -4.86771055e-02,  2.94262804e-02,  4.80581112e-02,
        -1.76972300e-01, -3.34541321e-01,  2.32025787e-01,
        -1.33312732e-01, -1.38917401e-01, -1.59144774e-01,
         2.67860472e-01,  1.78286836e-01, -1.85889035e-01,
         6.01748489e-02,  1.19212277e-01,  1.41727805e-01,
        -2.00564533e-01, -1.93113953e-01,  7.44393561e-03,
         4.66581807e-02, -2.16321588e-01, -1.37118936e-01,
         5.06575629e-02,  3.24999988e-02,  2.87871033e-01,
        -2.92332888e-01, -2.81515509e-01, -1.32314235e-01,
         1.27166361e-01,  1.29372075e-01, -5.61553165e-02,
         3.04543436e-01, -2.49648839e-01,  1.68082729e-01,
        -2.86461920e-01,  1.26877829e-01,  2.37456128e-01,
         1.06538683e-01, -2.92603821e-01, -5.59402481e-02,
         7.75414184e-02, -2.44292587e-01},
       { 2.54910767e-01, -1.80516675e-01,  3.72026674e-02,
         2.20322236e-03,  6.54802620e-02,  4.92652692e-03,
        -1.89404003e-02,  2.06255645e-01, -4.56279628e-02,
         2.20624417e-01,  1.92302883e-01,  3.37531358e-01,
        -1.94896176e-01, -1.64849073e-01, -2.94187844e-01,
         1.36347309e-01,  9.96016189e-02, -1.69955064e-02,
         3.14091682e-01,  7.06121549e-02, -1.47323713e-01,
         1.40836939e-01, -2.71561265e-01,  2.40880504e-01,
         3.25177252e-01,  5.67348152e-02,  7.68778995e-02,
         3.11897844e-01,  1.74743295e-01, -1.75958037e-01,
        -1.41289696e-01,  2.52221584e-01, -1.51278347e-01,
        -7.28935376e-02, -1.47880867e-01, -2.90080607e-01,
         6.38736486e-02,  9.67116952e-02,  3.37541819e-01,
         8.27224851e-02, -9.90924761e-02,  2.75773346e-01,
        -1.20420441e-01,  2.48798355e-01,  1.50974486e-02,
         1.35051519e-01, -1.59068763e-01, -3.05538714e-01,
         3.07574034e-01,  8.15947652e-02,  1.42772719e-01,
        -1.49275772e-02, -2.96791971e-01, -2.39875242e-01,
         5.02441861e-02, -2.30747879e-01, -1.89544678e-01,
         6.91904947e-02, -2.53448844e-01,  7.08288327e-02,
        -1.19399577e-01, -3.35936755e-01,  3.28508019e-01,
         3.23920161e-01, -2.58360475e-01, -5.43500204e-03,
         1.57829836e-01,  2.01278225e-01, -2.79366923e-03,
        -2.87891567e-01,  9.23886709e-03,  2.49109581e-01,
         2.35278770e-01, -3.70409675e-02, -8.95483494e-02,
        -1.13418661e-01,  1.98582768e-01,  2.20995009e-01,
         2.07853988e-01, -1.94822147e-01, -2.23706826e-03,
        -1.86303332e-02, -2.84527183e-01,  1.93354428e-01,
         2.77590984e-03, -1.07735299e-01, -6.73318207e-02,
        -4.46178466e-02,  2.00678542e-01,  1.39814585e-01,
        -3.11135221e-02, -2.71318525e-01,  1.12064049e-01,
         8.43547005e-03, -2.01599881e-01, -1.74205229e-01,
         5.29891588e-02,  2.12949648e-01, -2.13107109e-01,
         2.60832399e-01,  1.12651221e-01,  1.46711662e-01,
        -2.86186188e-01, -2.21996024e-01,  2.88416415e-01,
         3.12003136e-01, -2.70112365e-01, -1.60867602e-01,
         3.56819853e-02,  1.70097575e-02,  1.16896838e-01,
        -3.28770369e-01, -1.76095068e-01, -1.04033493e-01,
         5.19123152e-02,  1.26290813e-01, -1.43223945e-02,
         1.00881942e-01, -1.85176432e-01,  2.42308900e-01,
        -8.89807045e-02,  2.52366304e-01,  8.75102058e-02,
         2.99458027e-01, -1.54133916e-01, -1.42954424e-01,
         2.34611124e-01, -3.44915166e-02},
       {-1.64850011e-01,  2.94846952e-01, -3.42298776e-01,
         2.34797552e-01, -2.16671914e-01, -1.87225476e-01,
         3.44578207e-01, -2.21916616e-01,  2.14557514e-01,
        -1.39118120e-01, -8.86649713e-02, -2.52913296e-01,
         8.38476494e-02,  1.43314287e-01,  5.15834913e-02,
        -1.33053795e-01, -2.76294529e-01,  2.93741345e-01,
        -5.87324537e-02, -2.21081898e-01,  3.15235019e-01,
        -2.68627936e-03,  2.64919043e-01, -3.22552294e-01,
        -1.66375533e-01, -6.19999692e-02, -1.50152102e-01,
        -2.36352589e-02, -1.07196376e-01,  1.95298478e-01,
         3.10241580e-01, -3.28436881e-01,  2.40483418e-01,
         1.30042642e-01,  1.77325621e-01,  2.16159746e-02,
        -3.49812090e-01, -2.63872921e-01, -2.15319142e-01,
        -1.07164949e-01,  2.14095443e-01, -2.19385028e-01,
         8.30008909e-02, -8.72452334e-02,  7.79536413e-03,
        -1.09923117e-01,  1.58114657e-01,  3.08582991e-01,
        -1.82501510e-01, -6.30656406e-02, -1.83994919e-01,
        -1.92937911e-01,  3.04024994e-01,  3.17314208e-01,
        -2.42091194e-01,  2.65435010e-01,  2.40282193e-01,
        -3.46093401e-02,  2.39980116e-01, -6.50755642e-03,
         1.12750202e-01,  1.60630673e-01, -1.80282325e-01,
        -2.11339444e-01,  4.97494079e-02,  4.12825011e-02,
        -7.21602514e-02, -3.53495717e-01,  8.83153453e-02,
         1.03603564e-01, -2.52056062e-01, -1.67791188e-01,
        -1.02896385e-01,  1.80042714e-01,  1.86064452e-01,
         6.27707914e-02, -1.03276655e-01, -2.66330868e-01,
        -8.20027292e-02,  1.22660033e-01, -1.60060033e-01,
         1.14785798e-01,  7.26137459e-02, -6.24728575e-02,
        -1.32041380e-01,  1.21198796e-01,  2.95947552e-01,
         3.47055227e-01, -8.70775655e-02, -1.99666426e-01,
         1.50337204e-01,  1.25671819e-01, -2.77854055e-01,
         2.10512459e-01,  1.37980238e-01,  1.74779087e-01,
        -2.98705921e-02, -2.50734836e-01,  3.40880156e-01,
        -3.26434523e-01, -2.64159352e-01, -1.53602213e-01,
         1.67678192e-01,  4.97177579e-02, -2.19596568e-02,
        -2.57044375e-01,  3.17745134e-02,  3.63532081e-02,
        -2.77401358e-01, -2.36042544e-01, -2.78257668e-01,
         2.77041644e-01,  3.20456028e-01,  6.35298267e-02,
        -8.92816111e-02, -2.12669566e-01,  3.06859970e-01,
        -1.53053448e-01,  1.26745790e-01, -2.96698928e-01,
         1.72968656e-01, -3.34045261e-01, -4.19310704e-02,
        -1.69022441e-01,  1.42070740e-01,  2.68827099e-02,
        -2.70035237e-01,  6.07238375e-02},
       { 2.23433599e-02, -4.66655940e-02,  2.48414963e-01,
        -2.20304862e-01,  9.70173478e-02,  1.72017142e-01,
        -2.53137052e-01,  1.04778796e-01, -1.29618898e-01,
         4.97344434e-02,  7.58327469e-02,  5.68945780e-02,
         4.96542528e-02, -2.19343260e-01, -3.21725383e-02,
         1.11663170e-01,  1.50680631e-01, -8.21481720e-02,
         1.17232844e-01,  2.19872817e-01, -6.71831518e-02,
         2.25605741e-01, -1.73644394e-01,  3.13493282e-01,
         2.94043213e-01,  2.46257454e-01,  4.76092659e-02,
         9.36747938e-02,  2.62866855e-01, -2.03130320e-01,
        -1.17440119e-01,  1.14318319e-01, -2.01340139e-01,
        -3.12540382e-01, -1.58794239e-01, -3.17163676e-01,
         2.72670120e-01,  8.44038427e-02,  1.05606792e-02,
         1.83845744e-01, -1.37895882e-01,  2.93325423e-03,
        -1.18458711e-01,  2.24574536e-01, -1.89023361e-01,
         5.47940098e-02, -1.16480827e-01, -1.34749681e-01,
         2.57035732e-01,  2.23771513e-01,  2.45050415e-01,
         2.90818751e-01, -2.80497104e-01, -7.29414076e-02,
         6.22499324e-02, -7.11354464e-02, -2.92821229e-01,
         1.33629754e-01, -1.12330377e-01,  2.63371587e-01,
        -8.44798516e-03, -2.94931054e-01,  1.99699029e-01,
         8.29321742e-02, -2.21608952e-01, -1.16383210e-02,
         1.14538349e-01,  3.13729942e-01, -1.21675596e-01,
        -1.59113947e-02, -2.64867279e-03,  1.53207988e-01,
         1.05067797e-01, -2.09733650e-01, -4.40085530e-02,
        -1.43073931e-01,  2.77041882e-01,  1.06846943e-01,
         5.17574809e-02, -1.83577046e-01,  3.20770472e-01,
        -3.16135615e-01, -2.33842731e-01,  2.32107878e-01,
         1.99137047e-01, -2.60795891e-01, -2.38510773e-01,
        -3.00924122e-01,  2.36650720e-01,  2.04065502e-01,
        -3.07508916e-01, -2.32335255e-01,  2.40439638e-01,
        -1.39050499e-01, -3.33818108e-01, -2.61798412e-01,
         2.20939275e-02,  3.06381434e-01, -1.62295252e-01,
         1.66388318e-01,  2.65059829e-01,  1.83645874e-01,
        -2.23873571e-01, -1.06751099e-01,  1.74894601e-01,
         5.77933015e-03, -1.32239416e-01, -9.26092789e-02,
         1.11269921e-01, -4.82005114e-03,  2.57670656e-02,
        -2.78106272e-01, -1.02614664e-01, -1.62214249e-01,
         6.44290224e-02,  5.24462610e-02, -1.14961796e-01,
         2.26765424e-01, -1.60616830e-01,  2.34193444e-01,
        -2.19720639e-02,  1.28525138e-01,  1.78103343e-01,
         1.03091784e-01, -2.74021685e-01,  1.67071149e-02,
         2.77249008e-01, -3.33673209e-02},
       {-1.69718787e-01,  4.98342980e-03, -1.30148947e-01,
         1.89466581e-01, -7.83304423e-02, -2.96317153e-02,
         1.36542603e-01, -1.99007794e-01, -6.58344617e-03,
        -1.15268573e-01, -2.19673496e-02, -4.85130139e-02,
         2.31631726e-01,  1.83811411e-01,  1.44787997e-01,
        -1.37544006e-01, -2.44694844e-01,  1.17033415e-01,
        -1.32512271e-01, -8.16429872e-03,  3.15146476e-01,
        -5.11027537e-02,  9.58256051e-02, -3.07256192e-01,
        -2.74024680e-02, -3.31703514e-01, -2.85341352e-01,
        -2.94746459e-01, -1.91431001e-01,  2.61951566e-01,
         2.40598470e-01, -2.62329757e-01,  1.14531413e-01,
        -1.47907399e-02,  2.54539132e-01,  1.45099508e-02,
        -1.58236951e-01, -1.31351680e-01, -1.10041676e-02,
        -1.98524371e-01,  1.22391142e-01, -2.81188250e-01,
         2.50924170e-01, -1.71239510e-01,  2.24672109e-01,
         3.14357784e-03,  1.66889936e-01,  8.98664370e-02,
        -1.32111371e-01, -2.09616140e-01, -6.71787187e-02,
        -8.61526188e-03,  3.08061808e-01,  2.37668097e-01,
        -9.66195390e-03,  2.19509438e-01,  1.18083423e-02,
        -2.90179700e-01,  2.69304723e-01, -8.49348456e-02,
         2.28381097e-01,  1.39442280e-01, -2.50665516e-01,
        -2.09558308e-01,  1.37411207e-01,  2.96434108e-02,
        -1.28242329e-01, -5.64210191e-02,  1.34093404e-01,
         8.21333155e-02, -1.91923007e-01, -8.09765756e-02,
        -7.07875416e-02,  3.08838576e-01,  2.49229178e-01,
         1.81877330e-01,  6.53707422e-03, -2.12448716e-01,
        -2.14335378e-02,  2.27942348e-01, -1.34702682e-01,
         7.08158268e-03,  2.94050604e-01, -3.10039282e-01,
        -1.30220413e-01,  8.27106312e-02, -1.03229070e-02,
         4.77831885e-02, -1.73052028e-01, -1.56609807e-02,
         3.32695752e-01,  2.96208680e-01, -2.37543881e-01,
         1.37399778e-01,  1.26704350e-01,  8.00209120e-02,
        -2.86384553e-01, -1.27418876e-01, -1.39674963e-02,
        -3.09890956e-01, -7.46688843e-02, -7.43803009e-02,
         1.09988064e-01,  1.06012501e-01, -1.69731066e-01,
        -3.10183644e-01,  8.65114331e-02,  6.28972752e-03,
        -1.95561171e-01, -1.45257518e-01, -2.69201845e-01,
         5.87023161e-02,  4.99599054e-02,  1.38514474e-01,
        -5.41967414e-02, -4.07084599e-02,  2.57011443e-01,
        -1.47476792e-01,  1.41653672e-01, -1.11330181e-01,
         1.28598318e-01, -3.10394675e-01, -2.30738707e-02,
        -3.09670180e-01,  3.25317413e-01,  1.07284430e-02,
        -2.74548054e-01,  1.55677393e-01},
       { 3.33194077e-01, -2.84416080e-01,  2.16257170e-01,
        -2.38656133e-01,  2.33649194e-01,  2.04201549e-01,
        -5.34557179e-02,  7.68474117e-02, -3.03862840e-01,
         1.26846656e-01,  2.93970078e-01, -6.45551551e-03,
        -2.85712238e-02, -1.69258311e-01, -9.82420594e-02,
         2.00871587e-01,  2.13607416e-01, -1.51610136e-01,
         1.10181822e-02,  3.37783843e-01, -6.96434379e-02,
         5.48074394e-02, -1.40999690e-01,  2.24681720e-01,
         3.04727376e-01,  1.43419877e-01,  1.47106186e-01,
         3.08213443e-01,  4.39297296e-02, -7.65155703e-02,
        -1.08898290e-01,  1.98204502e-01, -2.96493620e-01,
        -2.43165284e-01, -5.12556881e-02, -6.97335601e-02,
         3.07336122e-01,  7.97678232e-02,  1.01716407e-01,
         2.58690178e-01, -1.34384394e-01,  8.89715254e-02,
        -6.59418553e-02,  3.27535301e-01, -2.39125952e-01,
         1.90470129e-01, -2.86156535e-01, -2.62004077e-01,
         1.36557609e-01,  2.95747817e-01,  7.34275728e-02,
         4.61078249e-02, -1.87573761e-01, -8.57540816e-02,
         2.35904291e-01, -2.44681418e-01, -2.44191125e-01,
         2.43663058e-01, -2.67677009e-01,  1.23803452e-01,
        -7.23185837e-02,  4.28740308e-03,  3.39762449e-01,
         7.26626627e-03, -3.23184311e-01, -1.44232216e-03,
         6.06591515e-02,  1.32113919e-01, -2.91654300e-02,
        -6.90447772e-03,  2.93690264e-01,  1.65313482e-01,
         2.93330193e-01, -2.96394825e-01, -2.93786405e-03,
        -3.23705226e-01,  2.19183356e-01,  3.04011345e-01,
         2.54164398e-01, -5.53014735e-03,  1.11147411e-01,
        -8.98350924e-02, -3.22330564e-01,  3.04690003e-01,
         2.24296283e-02, -2.65530944e-01, -2.63077408e-01,
        -3.04138333e-01,  3.67337950e-02,  1.98566079e-01,
        -1.57712355e-01, -8.24054182e-02,  9.29971039e-02,
        -4.33239415e-02, -1.22839823e-01, -5.35769388e-02,
         1.86837107e-01,  3.57584469e-02, -1.52726725e-01,
         2.19544575e-01,  8.34134296e-02,  9.39145032e-03,
        -2.22684488e-01, -3.21146578e-01,  1.20784774e-01,
         1.31132632e-01, -5.94884232e-02, -1.67364404e-02,
         2.96822846e-01,  1.40697703e-01,  3.08572471e-01,
        -1.33832740e-02, -2.31816620e-01, -2.74137884e-01,
         1.22566838e-02,  1.94093332e-01, -1.86924368e-01,
         3.02964061e-01, -2.71651089e-01,  3.04083288e-01,
        -8.76617357e-02,  2.95379370e-01,  3.31950456e-01,
         2.39584386e-01, -1.82356551e-01, -1.77044980e-02,
         2.34044269e-01, -2.26596445e-02},
       {-3.41309011e-01,  3.43054652e-01, -1.20083783e-02,
         1.14698494e-02, -5.38830459e-02, -4.35192324e-02,
         3.19911242e-01, -1.39971431e-02,  2.81896859e-01,
        -1.65623128e-01, -2.77855515e-01, -1.61163107e-01,
         2.38353163e-02,  5.42967319e-02,  1.21619061e-01,
        -9.07287449e-02, -1.13308415e-01,  1.18522927e-01,
        -2.21037239e-01, -2.40961149e-01,  1.67799026e-01,
        -1.67538345e-01,  2.41961509e-01, -1.87491961e-02,
        -2.74636745e-01, -2.04181090e-01, -7.84355775e-02,
        -1.93318263e-01, -3.17743659e-01,  2.55389571e-01,
         2.63274424e-02, -2.30974808e-01,  2.79155970e-01,
         1.12875648e-01,  2.69579023e-01,  2.59256005e-01,
        -2.35212818e-01, -3.29785526e-01, -1.41463697e-01,
        -1.15072122e-02,  1.51722142e-02, -2.28717014e-01,
         9.80402678e-02,  2.75094784e-03,  2.29728460e-01,
        -9.30071771e-02,  4.82799485e-02,  3.93931009e-02,
        -7.03520924e-02, -2.68454701e-01, -2.34670490e-02,
        -1.53959617e-01,  1.57724991e-01,  3.55869010e-02,
        -2.12401792e-01,  1.49383128e-01,  1.01104230e-01,
        -2.49718681e-01,  2.78263628e-01, -1.22595973e-01,
         9.99423712e-02,  1.19748421e-01, -8.92239660e-02,
        -1.91821665e-01,  2.37463757e-01,  4.58187656e-03,
        -4.29489762e-02, -1.96850538e-01,  1.75684139e-01,
         2.25601912e-01, -1.75898656e-01, -7.54296035e-02,
        -4.49046642e-02,  3.22657824e-01,  1.39869481e-01,
         2.79814899e-02, -2.66805977e-01, -2.42070347e-01,
        -7.93625489e-02,  2.54265487e-01, -2.31941580e-03,
         1.18639804e-01, -1.33716897e-03, -1.97419241e-01,
        -2.51024991e-01,  1.19961545e-01,  2.76632402e-02,
         7.44225457e-02, -8.15968513e-02, -2.04001561e-01,
         8.63443762e-02,  3.10156912e-01, -4.56229271e-03,
         1.18951127e-01,  2.28403330e-01,  1.34779409e-01,
        -1.97685257e-01, -2.76246488e-01,  3.20913494e-02,
        -4.68711853e-02, -1.01114631e-01, -2.88811177e-01,
         3.34408693e-02,  2.38976553e-01, -1.90065876e-02,
        -1.83198214e-01,  3.26530747e-02,  1.41642287e-01,
        -1.22827433e-01, -1.96220934e-01, -5.96578680e-02,
         1.94746405e-01,  2.07869470e-01,  1.88996181e-01,
        -1.56379759e-01, -3.40116620e-01,  1.03151307e-01,
        -3.25167567e-01,  2.66494334e-01, -1.84266821e-01,
         1.89746737e-01, -8.85143802e-02, -3.40056598e-01,
        -8.01891237e-02,  1.03114009e-01,  1.94021717e-01,
        -1.51155949e-01,  7.94223174e-02},
       { 2.06609175e-01, -2.93795615e-01,  2.13121623e-01,
        -4.79699336e-02,  2.23099977e-01,  2.05141976e-01,
        -2.97414809e-01,  2.83921450e-01, -3.30336452e-01,
         3.99988191e-03,  1.42479748e-01,  3.16999733e-01,
         1.49379335e-02, -1.13409691e-01, -2.92124152e-01,
         3.51374932e-02,  2.05147117e-01, -1.06819063e-01,
         2.83598632e-01,  3.08319688e-01, -2.29521856e-01,
         4.31607701e-02, -1.76204871e-02,  1.55840412e-01,
         8.67776200e-02,  1.93709120e-01,  2.58700281e-01,
         8.54260400e-02,  7.65216947e-02, -9.70203206e-02,
        -1.64796859e-01,  2.38219481e-02, -2.10058600e-01,
        -1.62160084e-01, -2.66874164e-01, -7.48873428e-02,
         2.70059649e-02,  1.06132671e-01,  3.13738227e-01,
         3.19760621e-01, -1.24912806e-01,  1.25610024e-01,
        -6.52070716e-02,  1.81662038e-01, -7.11988285e-02,
         2.40715861e-01, -1.52837597e-02, -1.04680276e-02,
         9.32419747e-02,  2.53850520e-01,  2.73553312e-01,
         9.57306847e-02, -7.29902238e-02, -1.19689293e-01,
         1.21240325e-01, -9.20702964e-02, -1.81775510e-01,
         3.18924457e-01, -5.71669787e-02,  1.63378567e-01,
        -1.87980272e-02, -4.97715734e-02,  6.19577542e-02,
         1.76037401e-01, -1.05894551e-01, -2.22195774e-01,
         3.10253382e-01,  3.21006298e-01, -1.09377705e-01,
        -1.48723856e-01,  9.10978466e-02,  2.56091535e-01,
         1.77534491e-01, -2.57113036e-02, -2.40088537e-01,
        -3.12570095e-01,  3.21601853e-02,  2.73337483e-01,
         1.84434593e-01, -3.22509408e-01,  6.28669187e-02,
        -1.80319309e-01, -2.85901666e-01,  1.66029762e-02,
         1.66727304e-01, -2.31766254e-01, -1.59890056e-01,
        -3.38395745e-01,  1.15773328e-01,  5.03458530e-02,
        -8.80625248e-02, -2.76968122e-01,  1.11150093e-01,
        -1.42133474e-01, -1.84617504e-01, -1.67239562e-01,
         3.08304220e-01,  7.85673037e-02, -5.55902794e-02,
         2.97364831e-01,  5.79793900e-02,  1.51377857e-01,
        -4.40253913e-02, -1.43528223e-01,  2.86962092e-01,
         1.94273889e-01, -1.10284902e-01, -1.25939220e-01,
         1.89449806e-02,  9.40898806e-02,  1.14193097e-01,
        -3.15539062e-01, -2.41338685e-01,  4.28615557e-03,
         1.67495012e-01,  1.22800857e-01, -3.24892968e-01,
         3.02145183e-01, -1.65904030e-01,  1.74921215e-01,
        -1.09644435e-01,  3.24228942e-01,  1.04506142e-01,
         2.17841804e-01, -9.71471518e-02, -8.29117075e-02,
         2.53174305e-01, -2.03625038e-02},
       {-3.21020871e-01,  1.46938354e-01, -3.23153257e-01,
         2.30788514e-01, -2.56177366e-01, -2.18256507e-02,
         3.25731546e-01, -3.35095018e-01,  2.77714074e-01,
        -7.12574273e-02, -1.27970604e-02, -2.27362335e-01,
         2.12932572e-01,  3.26857477e-01,  1.58836126e-01,
        -3.17745656e-02, -4.82961908e-02,  2.48215616e-01,
        -2.91006565e-01, -2.08612695e-01,  1.01790622e-01,
        -2.08475217e-02,  1.04306728e-01, -3.32486540e-01,
        -7.58743063e-02,  1.18695525e-03,  9.73888859e-03,
        -3.18265915e-01, -1.37131631e-01,  1.23223566e-01,
         1.66177183e-01, -7.60319754e-02,  1.30770564e-01,
         1.76811352e-01,  6.45815879e-02,  9.64198913e-03,
        -4.88898791e-02,  9.41128563e-03, -4.94489037e-02,
        -1.98850796e-01,  2.50143230e-01, -2.96419650e-01,
         2.39353091e-01, -4.19197902e-02,  2.07692340e-01,
        -1.30763426e-01,  1.61168367e-01,  2.00574268e-02,
        -2.75042117e-01, -1.78871959e-01,  1.07169058e-02,
        -1.45699158e-01,  2.95092195e-01,  1.52327165e-01,
        -3.16335142e-01,  2.27226004e-01,  2.52003074e-01,
        -1.12660788e-02,  2.33194485e-01, -4.28203829e-02,
         1.50826843e-02,  6.81970417e-02, -1.02746971e-01,
        -8.31864104e-02,  7.27100447e-02,  8.80509317e-02,
        -1.15198828e-02, -1.88476462e-02,  1.67765573e-01,
         2.93313324e-01, -2.04044655e-01, -2.48481512e-01,
        -3.34278733e-01,  2.65933394e-01,  2.65868068e-01,
         1.41037270e-01, -3.02311629e-01, -6.63464051e-03,
        -4.07282300e-02,  1.91639010e-02,  1.20176151e-02,
         2.44505361e-01,  9.91891325e-02, -2.49862954e-01,
        -2.40663767e-01,  2.45809048e-01,  4.52383496e-02,
         7.16947019e-02,  8.15164205e-03, -2.08253428e-01,
         2.83140838e-01,  1.80505216e-03, -1.30300507e-01,
         7.04207420e-02,  3.31213385e-01,  1.22244187e-01,
        -2.32254595e-01, -1.89344995e-02,  2.08545536e-01,
        -3.00229639e-02, -2.66179264e-01, -2.48790666e-01,
         1.30198330e-01,  5.74464314e-02, -4.35837284e-02,
        -5.09352908e-02,  2.26618633e-01,  7.51113892e-02,
        -1.66663364e-01, -2.14367107e-01, -2.37501964e-01,
        -4.45286045e-03,  2.79837847e-01,  2.49279350e-01,
        -3.05085242e-01, -2.32052237e-01,  2.64999568e-01,
        -2.87953377e-01,  2.72853106e-01, -2.88838744e-01,
         1.81783244e-01, -3.40430677e-01, -2.64488518e-01,
        -9.16798189e-02,  5.91818150e-03,  1.97447792e-01,
        -1.80761859e-01,  2.86517113e-01},
       {-1.52284637e-01,  2.46613055e-01, -2.36772761e-01,
         1.83889374e-01, -4.44676653e-02, -3.01399857e-01,
         2.83247102e-02, -4.31138538e-02,  2.69298941e-01,
        -1.63335845e-01, -1.94531083e-02, -2.15511844e-02,
         1.50097355e-01,  3.40349138e-01,  8.63426775e-02,
        -3.33639711e-01, -2.02077642e-01,  2.24419624e-01,
        -2.41151139e-01, -1.73544541e-01,  6.11385852e-02,
        -8.31507817e-02,  2.71696210e-01, -1.45654738e-01,
        -1.27773881e-01, -1.51702031e-01, -1.29038751e-01,
        -1.53720081e-01, -3.00089717e-01,  2.03045383e-01,
         3.39364290e-01, -1.72648951e-01,  1.32295653e-01,
         2.13254377e-01,  2.82975286e-01,  2.07388192e-01,
        -1.75928116e-01, -1.53698206e-01, -2.65449435e-01,
        -2.44612135e-02,  4.18507233e-02, -1.93062946e-01,
         9.98254716e-02, -9.87054035e-03,  9.68190283e-02,
        -7.45158195e-02,  9.92930532e-02,  1.75084244e-03,
        -2.57241219e-01, -1.71719700e-01, -2.77831525e-01,
        -2.87725896e-01,  1.64216965e-01,  2.89657205e-01,
        -2.66600668e-01,  3.45779836e-01,  2.21503615e-01,
        -3.13592583e-01,  8.37514251e-02, -4.45925146e-02,
         2.44845927e-01,  7.46099055e-02, -3.63610312e-02,
         4.71161096e-04,  2.43706591e-02,  1.26096711e-01,
        -4.58206646e-02, -5.38421609e-02,  2.77505219e-01,
         3.19469497e-02, -5.36514819e-02, -1.24589235e-01,
        -1.55403679e-02,  2.58715481e-01,  2.40292683e-01,
         2.21770301e-01, -2.51450598e-01, -7.88636133e-02,
        -1.67186111e-01,  2.87052155e-01, -2.03674108e-01,
         1.95887545e-03,  2.23100051e-01, -3.80542241e-02,
        -2.82636285e-01,  3.24840367e-01,  1.84246302e-01,
         2.07239896e-01, -5.44951707e-02, -1.34600326e-01,
         3.30905050e-01,  1.63223624e-01, -1.08434699e-01,
         2.41976514e-01,  1.57666415e-01,  1.87348843e-01,
        -5.15296012e-02, -9.70005542e-02,  2.09273547e-01,
        -1.09740131e-01, -2.22571954e-01, -9.37783569e-02,
         1.26359016e-01,  9.97840241e-02, -3.30541611e-01,
        -3.20876658e-01,  2.80318111e-01,  3.98483276e-02,
        -3.06414604e-01, -1.69097021e-01, -2.78902262e-01,
         1.04232505e-01,  2.17371494e-01,  3.51440422e-02,
        -2.49887541e-01, -5.97913675e-02,  1.26742810e-01,
        -2.71426797e-01,  2.00294271e-01, -2.88486123e-01,
         9.89508629e-02, -2.40254104e-01, -1.22794144e-01,
        -2.65402887e-02,  1.74548209e-01,  1.75471291e-01,
        -2.42223397e-01,  1.22028887e-01},
       {-1.74340755e-01,  3.80208492e-02, -9.56515968e-03,
         2.87102908e-01, -2.91449372e-02, -9.31440969e-04,
         1.19492859e-01, -1.87796161e-01,  1.90905452e-01,
        -2.61747032e-01, -3.22919339e-02, -4.18021251e-03,
         2.65709072e-01,  7.65328333e-02,  2.18731284e-01,
        -1.87590793e-01, -2.41016671e-01,  2.67940968e-01,
        -2.98491120e-01, -1.61311552e-01,  6.14787042e-02,
        -1.17410861e-01,  2.50015974e-01, -3.12577784e-01,
        -2.96048731e-01, -2.83887684e-01, -2.78623849e-01,
        -2.86827892e-01, -2.50915617e-01,  6.77227080e-02,
         8.58554021e-02, -8.88257399e-02,  3.19709986e-01,
         2.50452638e-01,  2.93827150e-02,  5.78378849e-02,
        -2.35287607e-01, -1.11921750e-01, -2.73008108e-01,
        -1.51801661e-01,  3.10404688e-01, -2.21890658e-01,
         1.09384611e-01,  5.35875326e-03,  1.13490999e-01,
        -2.50981271e-01, -1.37395645e-02,  2.28754446e-01,
        -2.72167265e-01, -1.19684204e-01, -3.05354744e-01,
         1.59538258e-02,  3.16457748e-02,  1.16409056e-01,
        -1.88691676e-01,  3.15988153e-01,  1.46982178e-01,
        -1.58869132e-01,  8.49542096e-02, -1.62336528e-01,
         5.13232835e-02,  3.08889806e-01, -5.13411798e-02,
        -2.36609027e-01,  6.28178865e-02,  2.43716091e-01,
        -2.28623196e-01, -2.64817357e-01,  2.20201701e-01,
         4.93545905e-02,  5.90504427e-03, -2.72171516e-02,
        -2.97688156e-01, -1.42002583e-03,  1.38432130e-01,
        -1.82479955e-02, -3.05749685e-01, -3.12553376e-01,
        -1.61998779e-01,  2.87340790e-01, -7.78971016e-02,
         1.80087313e-01,  2.89289892e-01, -3.22190635e-02,
        -9.02126580e-02,  9.11364034e-02,  1.44148365e-01,
        -1.16023943e-02, -1.66638687e-01, -1.12345017e-01,
         2.20929563e-01,  2.34652951e-01, -1.34020686e-01,
         7.42613673e-02,  2.70338327e-01, -2.52999552e-03,
        -3.16094249e-01, -2.43418038e-01, -1.27069242e-02,
        -6.97215572e-02, -1.87861875e-01, -7.08532752e-04,
         3.10339540e-01,  3.15588921e-01,  2.32018419e-02,
        -2.51516551e-01,  1.88578933e-01,  1.99705765e-01,
        -5.89150116e-02,  2.90278122e-02, -3.19625348e-01,
         1.59321815e-01,  3.48808169e-02,  2.12173030e-01,
        -8.06168467e-02, -1.87225565e-01,  1.35307178e-01,
        -1.14679642e-01,  2.61399806e-01, -3.97989601e-02,
         1.99583039e-01, -1.31830066e-01, -3.09027471e-02,
        -2.73870617e-01,  1.69054195e-01,  4.11658585e-02,
        -3.05513889e-01,  2.23610148e-01},
       { 2.26467982e-01, -3.15063566e-01,  7.03886524e-02,
        -2.40480855e-01, -9.34773870e-03,  1.92528013e-02,
        -2.91215569e-01,  1.32876933e-01, -1.74730793e-02,
        -5.95577434e-03,  7.56289214e-02,  2.76703447e-01,
        -2.09083259e-01, -3.16539258e-01, -3.27661008e-01,
         1.44366503e-01,  1.64875224e-01, -1.42159551e-01,
         2.34441131e-01, -1.57268960e-02, -1.12829156e-01,
         5.63474186e-02, -3.31393093e-01,  4.62274961e-02,
         1.28048807e-01,  5.31965010e-02,  1.04785360e-01,
         6.94663078e-02,  2.86123365e-01, -1.04159467e-01,
        -3.04499447e-01,  2.41461962e-01, -3.18898201e-01,
        -1.22581430e-01, -1.64127693e-01, -2.34815359e-01,
         5.61308824e-02, -4.39827750e-03,  2.75150090e-01,
         2.59510189e-01, -1.71351656e-01,  1.93960100e-01,
        -1.03676006e-01,  1.73379019e-01, -3.55357900e-02,
         2.52456546e-01, -2.34990373e-01, -3.18904638e-01,
         1.10634118e-01,  2.08257422e-01,  3.20464075e-01,
         2.43593618e-01,  1.29289301e-02, -1.26402214e-01,
         1.22303315e-01, -2.93429673e-01, -4.73155528e-02,
         2.07055032e-01, -1.12945773e-01,  2.20705286e-01,
        -3.18339497e-01, -5.37918657e-02,  1.21705428e-01,
         1.99402589e-02, -1.54743329e-01, -2.38859609e-01,
         1.57810271e-01,  1.47401780e-01, -3.92035022e-02,
         6.75524399e-03,  9.30560287e-03,  3.02018642e-01,
         1.32346958e-01, -3.28079641e-01, -1.70075744e-01,
        -1.93837509e-01,  2.69569218e-01,  2.39132404e-01,
         3.35059077e-01, -2.29142785e-01,  3.08524698e-01,
        -8.15797970e-02, -1.31705225e-01,  2.80717820e-01,
         1.61797196e-01, -3.03807735e-01, -3.03390682e-01,
        -1.92620635e-01,  2.73357838e-01, -5.57424547e-03,
        -9.85741615e-02, -1.83701411e-01,  3.31694692e-01,
        -1.63207442e-01, -8.52353796e-02, -2.39436701e-01,
         2.30799243e-01,  3.20559740e-01, -1.62103742e-01,
         1.35878563e-01,  3.15988064e-01,  4.20885943e-02,
        -7.10919723e-02, -2.97929823e-01,  2.61400342e-01,
        -4.53686295e-03, -8.39335006e-03, -2.11963430e-01,
         2.59118527e-01,  4.11600061e-02,  1.69176951e-01,
        -1.98155940e-01,  9.85793117e-03, -8.39948133e-02,
         2.65010297e-01,  4.00650129e-02, -2.20507830e-01,
         2.81052649e-01, -3.02935811e-03,  1.37973115e-01,
        -2.16416493e-01, -2.90198065e-03,  2.66657144e-01,
         1.16992332e-01, -3.17738682e-01, -1.76780432e-01,
         3.08238745e-01, -3.91314141e-02},
       {-2.63821125e-01,  1.57477111e-01, -2.49782547e-01,
         3.40102196e-01, -5.62614165e-02, -2.59362936e-01,
         1.64005086e-01, -1.34757802e-01,  2.91968256e-01,
        -1.83588892e-01, -2.30057970e-01, -2.38922983e-01,
         1.86233535e-01,  2.43817702e-01,  1.94320589e-01,
        -2.85581559e-01, -3.13465223e-02,  9.03188661e-02,
        -2.93290466e-01, -9.97651815e-02,  1.67615354e-01,
        -3.21484774e-01,  9.99228656e-02, -1.45277604e-02,
        -1.36902437e-01, -1.46105036e-01, -7.27366805e-02,
        -1.79229438e-01, -1.97899193e-01,  9.44534764e-02,
         2.59069264e-01, -1.16841495e-01,  7.59354532e-02,
         7.89602846e-02,  1.77993581e-01,  2.73671567e-01,
        -1.20290034e-02, -5.08749261e-02, -1.53049320e-01,
        -6.48340136e-02,  7.12292865e-02, -5.79830930e-02,
         1.23901732e-01, -1.62322566e-01,  2.34260187e-01,
        -1.69039965e-01,  1.05169654e-01,  2.26813138e-01,
        -7.92576224e-02, -2.44036093e-01, -1.32537618e-01,
        -1.78111553e-01,  1.59340099e-01,  3.24396968e-01,
        -1.28596053e-01,  1.82255909e-01,  2.36953467e-01,
        -1.15012646e-01,  2.22301871e-01, -3.06236207e-01,
         1.86648846e-01,  1.17478631e-01, -1.37504533e-01,
        -3.44233871e-01,  4.29459363e-02,  2.70287544e-01,
        -8.72656181e-02, -3.03127140e-01,  8.70384797e-02,
